3575 100
what -1.257141 -0.6533636 -0.3825574 1.3373731 2.7221456 -1.9942962 -0.073259585 0.5773946 -2.991547 0.19817 0.57727826 2.2666802 3.368946 0.23116243 1.1057922 -3.0259326 2.6911514 -1.4058281 -5.231016 0.5546911 -0.9906353 1.3800215 -1.9157994 0.8597446 -1.3996233 0.7935808 0.07490214 0.196255 1.6731882 1.7137086 0.44201985 -1.8416077 -2.9774916 -1.7399436 0.9927808 4.9470997 -0.55227333 -0.89003605 1.8202424 -0.35953435 -1.6376798 1.6629179 -0.3003096 -4.154891 3.2255673 0.25937536 -0.62894094 -0.955576 1.651645 -2.7509296 0.04685472 1.8919861 -1.0442226 -0.6558225 -2.7531621 0.22450186 0.57839555 4.047076 0.8045797 -1.4840451 -0.7992004 0.9543346 0.5632254 2.2729785 0.121651165 2.5972042 -2.1178916 -0.33773297 0.3843904 -0.48690414 -2.5433578 -0.3216015 0.77037895 1.1469755 -0.83225626 -3.1293588 -1.2147006 0.41345176 0.7545496 0.43624988 -0.83433855 1.9863609 1.0539875 2.0687659 -0.79873765 0.13690618 1.4543935 -2.5583827 2.0390878 -0.5291037 -0.636683 2.5816824 -0.90401 -3.0688193 -0.0042807646 -2.303122 -0.21277212 0.06432418 0.85306674 4.083071
said -1.2436758 -0.7039963 -0.40307045 1.3432448 2.6504812 -1.928719 -0.016661054 0.5750869 -2.9405928 0.18674742 0.57178944 2.2025154 3.244807 0.19270897 1.1828392 -2.9854636 2.5956101 -1.3574612 -5.0197506 0.5781063 -0.93560123 1.3357439 -1.8377857 0.8021331 -1.41406 0.77522796 0.11739276 0.19680627 1.6202389 1.6603022 0.37414873 -1.7618743 -2.923945 -1.6983597 0.9445448 4.7287116 -0.5600593 -0.8447064 1.7828023 -0.39328215 -1.648669 1.6184669 -0.33773363 -4.0988536 3.1941876 0.2817681 -0.5489732 -0.9185458 1.6335678 -2.6536856 0.089047864 1.817026 -1.1519471 -0.6073741 -2.7453096 0.20475155 0.56413 3.9716847 0.7538002 -1.4347172 -0.7362459 0.955634 0.63174784 2.2066078 0.07135089 2.6115448 -1.9920487 -0.3929387 0.3698265 -0.4556032 -2.4796352 -0.2890856 0.845731 1.1180396 -0.80607426 -3.03128 -1.2169678 0.49041128 0.70913374 0.39489603 -0.7464868 1.9660978 1.0411333 2.0489519 -0.8594076 0.097009934 1.4207509 -2.5017061 2.007279 -0.5279055 -0.58490413 2.5282118 -0.9572316 -2.9669027 -0.014638706 -2.2041688 -0.25647414 0.082933955 0.75185156 3.8656266
plus -0.84306365 -0.49840394 -0.27956945 0.95544016 1.9091628 -1.3859167 -0.039369103 0.385426 -2.1032572 0.1788733 0.40885603 1.5817728 2.30601 0.15184124 0.7876383 -2.1556473 1.8690896 -0.96830666 -3.6509008 0.37485656 -0.6818411 0.93187916 -1.3207418 0.61371964 -0.97584724 0.5262498 0.07611475 0.15241443 1.1730711 1.1741633 0.26167986 -1.2773635 -2.082866 -1.1812934 0.67776495 3.3267658 -0.39974654 -0.58487666 1.294862 -0.2288261 -1.1322583 1.14011 -0.25767112 -2.8739805 2.1907167 0.15455519 -0.43227 -0.6323099 1.1146936 -1.8527992 0.05079746 1.2819666 -0.76391524 -0.39839026 -1.9691219 0.14434625 0.38267422 2.8126774 0.55037814 -1.0022445 -0.55718106 0.6549128 0.46366498 1.5296812 0.05143679 1.8444269 -1.3648554 -0.25677457 0.2585294 -0.32203022 -1.7444937 -0.1836053 0.60265714 0.79425544 -0.60763985 -2.1567762 -0.881795 0.2795886 0.5073277 0.2528552 -0.54205173 1.4128255 0.72569567 1.4668683 -0.6036533 0.028518561 0.9842979 -1.7734478 1.439409 -0.37513223 -0.4010014 1.8387911 -0.6642785 -2.0542693 0.03456136 -1.567889 -0.17179705 0.08623004 0.5831224 2.7551975
youve -0.8675108 -0.5702026 -0.28841388 1.0121564 1.9732376 -1.4736484 -0.017237706 0.4136053 -2.1664405 0.1382339 0.4093177 1.6284795 2.398544 0.14430185 0.90642387 -2.247206 1.9137882 -0.95091784 -3.727278 0.4157907 -0.6722963 1.0222201 -1.3572583 0.6015389 -1.0429935 0.5913892 0.043435354 0.15559347 1.1946924 1.2435474 0.2519526 -1.3010702 -2.184715 -1.2388841 0.6492428 3.5202272 -0.40723354 -0.6386013 1.3407608 -0.28525466 -1.2129232 1.2082082 -0.26375747 -2.953592 2.292509 0.19564314 -0.43580103 -0.6484373 1.1454204 -1.9099916 0.033560608 1.3187977 -0.8275563 -0.4236358 -1.9816908 0.19497743 0.46826336 2.8979871 0.49657226 -1.086422 -0.57472837 0.71701545 0.4324857 1.6354415 0.054375414 1.8746195 -1.4937001 -0.2872295 0.321397 -0.34543884 -1.8322772 -0.23769897 0.5873539 0.8016014 -0.5794597 -2.258333 -0.8411236 0.35172573 0.54638577 0.29568505 -0.56084234 1.4846224 0.74183196 1.5137026 -0.5802712 0.043774273 1.0200676 -1.8449255 1.4410672 -0.40461913 -0.43550774 1.8881993 -0.6427862 -2.103261 -0.038919125 -1.6244674 -0.20408885 0.07021075 0.5545314 2.8672311
added -0.39754274 -0.24884225 -0.14509296 0.44534105 0.92040986 -0.71164227 -0.0019496895 0.23370223 -1.0228419 0.06638753 0.21396916 0.785692 1.1257317 0.07207484 0.43049356 -1.0313427 0.911239 -0.44853687 -1.7813423 0.18866016 -0.35089585 0.49097013 -0.6407767 0.325226 -0.509469 0.26297563 0.046913944 0.071643196 0.57586205 0.52714604 0.11108708 -0.6038066 -1.0219468 -0.5894785 0.2890254 1.6174855 -0.18871616 -0.29584032 0.5985043 -0.14864595 -0.5786249 0.54988307 -0.15964241 -1.411547 1.1060319 0.073217854 -0.15744755 -0.32063103 0.5593375 -0.89073884 -0.00646305 0.63617104 -0.36104774 -0.21442342 -0.96408886 0.07343106 0.20110475 1.3970467 0.23170069 -0.47452554 -0.307572 0.3522893 0.18448554 0.79129726 0.015814025 0.8895075 -0.71713865 -0.10332878 0.11717134 -0.16146891 -0.8379286 -0.07278972 0.31844997 0.3505161 -0.30261472 -1.0706804 -0.430306 0.17955649 0.21995585 0.121472135 -0.27591196 0.6299654 0.36217833 0.7416669 -0.307587 0.060524117 0.4761838 -0.81131446 0.6571289 -0.21556744 -0.22973458 0.8448712 -0.3151614 -0.9768848 -0.021365156 -0.76626617 -0.0875276 0.056167472 0.22977918 1.3323709
commercials -0.19308884 -0.18216313 -0.10179721 0.21721256 0.5225424 -0.29195106 -0.049960233 0.1362672 -0.47241235 0.06843416 0.120826416 0.3574941 0.6224443 0.003919567 0.23015809 -0.53089356 0.45785654 -0.29522777 -0.8739279 0.114300504 -0.11742116 0.2895117 -0.3024629 0.15295388 -0.2827833 0.09729923 0.032332398 0.047881365 0.25681797 0.31513062 0.0773282 -0.26969022 -0.5531402 -0.34538883 0.12561412 0.8641781 -0.10408812 -0.18100254 0.2623271 -0.042677462 -0.31479147 0.3322244 -0.012236013 -0.76073724 0.59668744 0.08443706 -0.04876794 -0.19441819 0.22805138 -0.42597827 -0.03871965 0.2983301 -0.23029661 -0.14453645 -0.43853226 0.08364018 0.0559162 0.70546687 0.11714769 -0.24538696 -0.16523795 0.14538279 0.074694514 0.3953443 0.033102933 0.42967176 -0.3430536 -0.1037823 0.1173965 -0.10602421 -0.43112895 -0.011358496 0.10222871 0.22526006 -0.0887 -0.57913154 -0.22011082 0.0712513 0.07724689 0.041534204 -0.12842077 0.3077522 0.14530842 0.39073458 -0.1228516 0.044992317 0.19947301 -0.4440023 0.36012292 -0.07787805 -0.07060389 0.47167572 -0.19000924 -0.5693713 0.019682717 -0.3860508 0.0043484885 -0.033701587 0.12101522 0.6927819
to -0.46901968 -0.29852977 -0.14308268 0.54681534 1.0397298 -0.74698585 -0.0228197 0.22579849 -1.105817 0.0762357 0.19585998 0.8443822 1.2694231 0.09982223 0.45425034 -1.1484646 1.0151491 -0.53842014 -1.9625342 0.22764361 -0.32849035 0.51706165 -0.6963149 0.32058206 -0.56139404 0.3034879 0.023167768 0.07737239 0.61588746 0.6652435 0.14158002 -0.6782232 -1.11702 -0.63229567 0.3732078 1.8043578 -0.21487498 -0.3164261 0.66902983 -0.13703972 -0.637275 0.609322 -0.15597568 -1.5564187 1.2007797 0.07800727 -0.20133637 -0.31856772 0.637553 -0.99606884 0.03203236 0.69222224 -0.4084856 -0.2268606 -1.0676706 0.11139007 0.21520697 1.5282067 0.28997478 -0.54038715 -0.29810643 0.34330556 0.24211976 0.85781866 0.016351199 0.99465925 -0.74518824 -0.14864667 0.15814054 -0.13378854 -0.94192284 -0.11881499 0.32251307 0.43857336 -0.2872524 -1.1545027 -0.4575104 0.21224001 0.25491497 0.12196016 -0.32656834 0.7696671 0.3864945 0.8066687 -0.3363111 0.033983294 0.5353934 -0.9582913 0.7491104 -0.21020387 -0.21478856 0.97393984 -0.3443426 -1.0862781 0.012458486 -0.8458019 -0.11713999 0.04758424 0.30754727 1.4649214
the -0.52933127 -0.3458833 -0.16253528 0.59898365 1.1675777 -0.8493686 0.004793304 0.2345826 -1.2912043 0.102146514 0.25280315 0.96479696 1.412654 0.08794135 0.5107052 -1.2892298 1.1725936 -0.58111626 -2.2193248 0.24865638 -0.41225561 0.5870728 -0.7917033 0.36617485 -0.6230045 0.35729876 0.04857488 0.09922151 0.7302432 0.6984387 0.14413625 -0.7606267 -1.2615318 -0.7194611 0.3792363 2.071847 -0.23929185 -0.38435638 0.76736486 -0.15527728 -0.72574127 0.6887088 -0.13489862 -1.7922333 1.3942409 0.06777084 -0.24242827 -0.40291908 0.7096499 -1.1518055 0.049522534 0.810646 -0.48886192 -0.2673113 -1.1920965 0.13554661 0.2601659 1.7146398 0.29292586 -0.63087624 -0.33156297 0.40555194 0.28610098 0.97584045 0.010414403 1.1235322 -0.84644586 -0.13176392 0.17349246 -0.17243512 -1.0465548 -0.13251646 0.36782637 0.46373764 -0.36499405 -1.3412446 -0.52143836 0.20507243 0.28449646 0.17423505 -0.33719128 0.82643056 0.43557414 0.880937 -0.36110407 0.025189424 0.6241387 -1.0559298 0.8858485 -0.22527768 -0.2423287 1.1237718 -0.38906994 -1.2465411 -0.020353159 -0.9363559 -0.090063356 0.04465204 0.33655712 1.660029
experience -1.4219453 -0.90395814 -0.4637668 1.5460117 2.9633026 -2.2798567 -0.034896098 0.66950464 -3.390727 0.24926789 0.634335 2.5343523 3.674757 0.28941223 1.3024933 -3.4120197 3.0172822 -1.5090841 -5.770915 0.6767475 -1.0381664 1.5663675 -2.0805948 0.91358024 -1.5738649 0.87214106 0.117094144 0.28957453 1.8194532 1.8317058 0.3875449 -2.026855 -3.3211973 -1.8906015 1.0509876 5.3405027 -0.64427114 -0.98591244 2.0363169 -0.4306926 -1.8799694 1.7873592 -0.33253083 -4.6624045 3.5980234 0.19554324 -0.6452089 -1.0135592 1.8249419 -2.9647737 0.11789088 2.0656853 -1.34987 -0.77598494 -3.0818896 0.28053698 0.6801904 4.528807 0.73853415 -1.6530325 -0.89181685 1.062032 0.72950006 2.5143375 0.031802356 2.9051316 -2.2832246 -0.41644284 0.48563668 -0.5065925 -2.7578373 -0.30928236 0.96785796 1.203799 -0.8920497 -3.4987586 -1.4115089 0.46438283 0.7598372 0.39966884 -0.81903404 2.1979294 1.124203 2.3766644 -0.96054095 0.06052097 1.6449759 -2.819041 2.284398 -0.5384957 -0.6676322 2.8884604 -1.0219141 -3.2679963 0.04298588 -2.5062099 -0.3275479 0.107389644 0.88626826 4.370488
i -1.2165706 -0.6739097 -0.41572237 1.3975577 2.6652117 -1.8917911 -0.055223774 0.5208105 -2.8645942 0.17294432 0.5680006 2.1997714 3.3396833 0.23548993 1.1381214 -3.035509 2.523431 -1.4174075 -5.1122136 0.53712016 -0.9620165 1.3217767 -1.9340664 0.84234065 -1.3781111 0.65679777 0.11968309 0.23125622 1.592904 1.6223012 0.462325 -1.855778 -2.856282 -1.7037822 0.9289276 4.80848 -0.4820591 -0.8928801 1.7121297 -0.3653534 -1.6831654 1.6931468 -0.29025292 -3.9742384 3.1282027 0.3515384 -0.6123451 -0.9173789 1.5110432 -2.675711 -0.018421177 1.8480008 -1.0172311 -0.5354385 -2.658933 0.2092731 0.49255657 3.9301841 0.76947534 -1.3559705 -0.7322335 0.9794593 0.5402119 2.1062424 0.09469541 2.4568691 -2.0576923 -0.3288016 0.351426 -0.50328726 -2.414837 -0.3613991 0.7487795 1.1194737 -0.8098589 -2.8804238 -1.1170264 0.40765086 0.7337378 0.45118856 -0.7668929 1.9942136 1.0300283 2.0877278 -0.7953067 0.1464546 1.4732181 -2.542845 1.9391217 -0.44346917 -0.642658 2.4982042 -0.9042486 -2.95261 -0.010410096 -2.1522658 -0.20455346 0.1328444 0.83635455 3.8455665
didnt -1.3283406 -0.8089168 -0.44467297 1.5616267 2.9761775 -2.1764433 -0.053000133 0.62416184 -3.3180556 0.2534178 0.61084104 2.4568949 3.7049217 0.290036 1.3417138 -3.3899112 2.9246264 -1.5568515 -5.711141 0.6523812 -1.0242944 1.5123249 -2.0672197 0.89676917 -1.5886961 0.87252796 0.084826246 0.22635357 1.8023006 1.8812703 0.47727293 -1.9671755 -3.3046057 -1.8705635 1.042326 5.3629527 -0.6168103 -0.994158 1.9770225 -0.39354783 -1.8651314 1.8499415 -0.3748158 -4.5902495 3.5588136 0.3043345 -0.652796 -1.0176033 1.8247288 -2.9601617 0.05101152 2.0376897 -1.2469096 -0.6695801 -3.1080244 0.25281143 0.6889757 4.497911 0.86483586 -1.6326991 -0.8501763 1.0420336 0.6798062 2.4869528 0.08759364 2.8808036 -2.247025 -0.38515037 0.4025257 -0.4730248 -2.7781627 -0.34622774 0.93866354 1.2861078 -0.89520484 -3.409753 -1.3780321 0.5195845 0.83808154 0.4238304 -0.9076525 2.2367415 1.1583374 2.3586645 -0.9410793 0.11851254 1.608227 -2.810079 2.2175162 -0.5926451 -0.6884068 2.8563046 -0.9951542 -3.2639194 0.0041083894 -2.4437764 -0.25416818 0.09467063 0.883095 4.371314
today -1.4891222 -0.9287535 -0.49902296 1.6706882 3.239078 -2.4115968 -0.068924606 0.74161935 -3.6175485 0.27094102 0.6592479 2.7159548 4.0060506 0.2562943 1.4212011 -3.7145195 3.2845955 -1.6417521 -6.269704 0.6981913 -1.0922856 1.6656528 -2.23339 1.0000762 -1.7007569 1.0067292 0.11992629 0.302925 1.9637655 2.0654101 0.44563115 -2.185736 -3.595425 -2.0069377 1.1213965 5.8558354 -0.6921558 -1.0333977 2.1670282 -0.45270184 -2.0212574 1.9764943 -0.40978813 -5.0108852 3.8817058 0.2194356 -0.67772406 -1.1067283 1.9768083 -3.251658 0.0944942 2.2559993 -1.3850149 -0.7716383 -3.3886502 0.33753863 0.70750797 4.8494906 0.8865998 -1.8012679 -0.95689017 1.1141595 0.8106368 2.7658412 0.051402822 3.1577477 -2.4460702 -0.39060268 0.47451213 -0.5264138 -3.0201857 -0.3436903 1.0143241 1.3679868 -0.9820806 -3.7940435 -1.4782728 0.58162475 0.81836766 0.47015563 -0.9183621 2.399772 1.2470347 2.5132394 -1.0641717 0.07917481 1.7277045 -3.0796154 2.4554846 -0.63694125 -0.7249736 3.1228514 -1.1221453 -3.5600019 0.011110409 -2.6989496 -0.2914497 0.117439516 0.9407119 4.77775
must -0.5563483 -0.34834123 -0.1515363 0.6311677 1.2407486 -0.9321437 0.024142696 0.24372034 -1.3455038 0.08024978 0.29267025 1.0230981 1.5468779 0.08964432 0.5064232 -1.3603965 1.227033 -0.6307128 -2.3051338 0.25542867 -0.4434684 0.60307926 -0.82495695 0.4146782 -0.6569112 0.39175466 0.00849524 0.08973002 0.73216075 0.80413496 0.17039171 -0.78412396 -1.3580933 -0.76318693 0.44573328 2.238549 -0.26736218 -0.3608485 0.851362 -0.12966286 -0.79247665 0.7679587 -0.16914622 -1.8473705 1.4438018 0.15424597 -0.29861856 -0.41678968 0.7201426 -1.2345715 0.003641197 0.8768481 -0.5332349 -0.26727667 -1.2589576 0.090564184 0.26490635 1.8317382 0.32641715 -0.6500575 -0.35904083 0.45182228 0.3076884 0.9923585 -0.00217347 1.1568582 -0.92146283 -0.15467477 0.19697383 -0.1718083 -1.1565695 -0.17649959 0.36616665 0.4791077 -0.41871428 -1.4221895 -0.58061105 0.23735197 0.32745293 0.16010247 -0.357167 0.915316 0.45870817 0.9879822 -0.38332802 0.024922568 0.63184494 -1.1898328 0.9358405 -0.23427904 -0.26228106 1.1765784 -0.45510352 -1.3743949 0.0029385502 -0.9733422 -0.1411441 0.050407913 0.3577617 1.8400906
mean -0.6760649 -0.35141963 -0.23359609 0.72193563 1.4002675 -1.0482633 -0.038123228 0.31608132 -1.5291363 0.072753474 0.24883436 1.1361072 1.6929781 0.0775568 0.62101424 -1.5522314 1.3378444 -0.7085007 -2.668731 0.26304173 -0.51157963 0.7261466 -0.97307146 0.449154 -0.66948664 0.4282232 0.0972968 0.09671307 0.8712108 0.8555392 0.20973603 -0.88803846 -1.495691 -0.8670572 0.4855618 2.5128825 -0.23575787 -0.45710132 0.91472363 -0.23142377 -0.8821949 0.8150421 -0.19446762 -2.09645 1.5962653 0.13243906 -0.2807836 -0.49687687 0.83150434 -1.365098 0.011894032 0.90994513 -0.5496402 -0.34602585 -1.3940786 0.0791164 0.26615894 2.0481548 0.36198753 -0.73805344 -0.42371306 0.47455382 0.3039704 1.1353511 0.0011188933 1.2892252 -1.0589917 -0.1626083 0.18934314 -0.2584072 -1.3072693 -0.14034791 0.4617489 0.579811 -0.44904202 -1.5537634 -0.6187901 0.21454646 0.39261594 0.18589243 -0.41173986 0.9753843 0.50081235 1.0275108 -0.42138445 0.030293154 0.7478251 -1.3069052 1.0401757 -0.24394803 -0.307161 1.3154298 -0.45606703 -1.5551721 -0.006056491 -1.1759105 -0.101360135 0.015919806 0.36768118 2.0057929
need -1.3800886 -0.7710124 -0.4214438 1.5294393 2.9859385 -2.215479 -0.061741598 0.6370231 -3.3027902 0.17609908 0.6564964 2.488123 3.7392545 0.21428257 1.289648 -3.3778348 2.9327826 -1.5801363 -5.756412 0.6073354 -1.0552242 1.4550211 -2.0977135 0.9103589 -1.5832249 0.84204924 0.04972888 0.25712192 1.8159956 1.8853244 0.4348176 -1.9498665 -3.2352304 -1.919432 1.1007146 5.3742967 -0.5827398 -0.93370515 1.9595573 -0.412392 -1.8103458 1.8411789 -0.38064298 -4.5212092 3.5039382 0.31784123 -0.68014526 -1.0114774 1.8120049 -2.9505618 0.09202341 2.0297766 -1.1858042 -0.6868885 -3.0410821 0.2424683 0.6464632 4.441586 0.92331773 -1.6050133 -0.8620379 1.0432094 0.6711274 2.4869785 0.07089045 2.8448987 -2.2228959 -0.4172959 0.46231508 -0.44509727 -2.7988026 -0.37232256 0.8650229 1.2510253 -0.90167725 -3.3614895 -1.2943392 0.47671512 0.8539072 0.44841245 -0.86051834 2.2257586 1.1959374 2.341266 -0.9428812 0.12467463 1.5473944 -2.8701105 2.1621115 -0.5952794 -0.7219696 2.8272433 -0.9917331 -3.3081582 0.005928748 -2.4717283 -0.29927543 0.094827525 0.8897562 4.3794966
take -1.3102474 -0.80490226 -0.3575038 1.4707932 2.8570845 -2.1252618 -0.028784106 0.59767234 -3.135673 0.24083826 0.54811865 2.395223 3.5183566 0.25584966 1.2359852 -3.213096 2.850599 -1.4407533 -5.4735975 0.5734646 -0.9549046 1.4292848 -1.9432249 0.88711023 -1.5381644 0.80747265 0.10315574 0.21460977 1.7376331 1.8092849 0.43844658 -1.9446665 -3.1119535 -1.7672614 0.9952699 5.105535 -0.5697113 -0.89061373 1.9222354 -0.4366203 -1.7724596 1.6938864 -0.37935498 -4.364336 3.359676 0.27263042 -0.59422666 -0.9620392 1.7595483 -2.8269544 0.09456516 1.9622916 -1.1880231 -0.6656323 -2.9788404 0.24445747 0.6470786 4.2407217 0.7766701 -1.5163059 -0.7939704 0.98612165 0.6265614 2.3973472 0.014762777 2.7060502 -2.147104 -0.39058807 0.37724546 -0.49545765 -2.6897087 -0.32553837 0.9090569 1.1490464 -0.83959055 -3.2079122 -1.2576703 0.48347506 0.7889864 0.44297445 -0.7956773 2.095789 1.0897385 2.1912615 -0.89672947 0.06099019 1.516389 -2.6838048 2.1398778 -0.5565164 -0.67024076 2.7452602 -0.9482989 -3.088585 -0.00092619687 -2.3687408 -0.2954577 0.09646318 0.85607064 4.1320906
another -1.4021062 -0.90103567 -0.46138647 1.6739004 3.1761892 -2.344394 -0.030466529 0.70080054 -3.5515656 0.29103306 0.69087327 2.6200116 3.915918 0.3049961 1.439368 -3.585664 3.165907 -1.6446835 -6.066908 0.6720539 -1.106083 1.638522 -2.1866462 0.9745162 -1.6514322 0.92538327 0.106465295 0.27570057 1.955033 1.9806508 0.4629228 -2.129649 -3.4758377 -1.9661796 1.1042153 5.6378684 -0.68092877 -1.0466592 2.1215882 -0.46544155 -1.9767766 1.9297639 -0.44251758 -4.850216 3.771092 0.2441716 -0.708215 -1.0655895 1.8890108 -3.1357062 0.11270156 2.2071726 -1.3366374 -0.7794786 -3.297025 0.29599622 0.68730354 4.7164354 0.90213454 -1.7663931 -0.89863086 1.1502532 0.75677854 2.6686108 0.044773303 3.0302455 -2.3312802 -0.44305894 0.45118022 -0.4882581 -2.939621 -0.35512716 1.0049657 1.3165672 -0.94187856 -3.6037886 -1.4311197 0.54803395 0.8733724 0.4722579 -0.9412791 2.3565416 1.2557116 2.4521077 -1.0093391 0.09568098 1.6891665 -2.9758773 2.3762245 -0.5952262 -0.6922878 3.0137386 -1.0659534 -3.4809678 0.014969774 -2.5849903 -0.32316694 0.12265743 0.93640816 4.625202
trip -1.3465309 -0.8149273 -0.404349 1.5326502 2.9140425 -2.209348 -0.058472246 0.63816804 -3.3037515 0.23292522 0.6352336 2.4412262 3.6343732 0.24678561 1.3273 -3.3438416 2.9157434 -1.5136704 -5.6861525 0.65478826 -1.0471542 1.5485419 -2.0284004 0.8872943 -1.560415 0.8762343 0.10339771 0.2300076 1.8051071 1.8582836 0.42666277 -1.9640918 -3.2344992 -1.8170774 1.0690082 5.2384224 -0.65070945 -0.93881637 1.9950106 -0.3899167 -1.823152 1.7863508 -0.4274687 -4.541816 3.4740593 0.21645984 -0.6282129 -0.9694644 1.7470973 -2.887912 0.06878141 2.047712 -1.2532386 -0.7149098 -3.0791287 0.31039512 0.68672645 4.4033785 0.8307007 -1.619072 -0.8693348 1.0503013 0.7124881 2.4912868 0.024618743 2.828972 -2.2111921 -0.38262138 0.4486114 -0.44147274 -2.7471402 -0.3000663 0.9503441 1.2089678 -0.9176064 -3.3887956 -1.3564211 0.47691676 0.7563402 0.43241063 -0.874335 2.173568 1.1791847 2.3133597 -0.944486 0.09555737 1.5455416 -2.7889612 2.234855 -0.5640875 -0.6421673 2.8597915 -1.0307763 -3.2155354 0.03360301 -2.396677 -0.3076353 0.116105266 0.86107886 4.310547
its -1.3935088 -0.8742736 -0.40121016 1.6845845 3.1839468 -2.3282213 -0.0053333207 0.6699714 -3.5049903 0.25666767 0.6790316 2.5848455 3.932961 0.25780508 1.4112369 -3.545083 3.1345696 -1.5883942 -6.0269194 0.7038867 -1.0903043 1.6094859 -2.1598353 0.9867673 -1.6788602 0.92360294 0.07806462 0.24169572 1.9167157 1.9972991 0.46930704 -2.057833 -3.4952426 -1.9765266 1.1372968 5.600942 -0.6682791 -0.9596603 2.1233904 -0.47659788 -1.9525368 1.900284 -0.39338952 -4.8105984 3.7622273 0.25147623 -0.66877764 -1.0735066 1.9334885 -3.0884151 0.09874308 2.1972175 -1.307083 -0.71112436 -3.2285979 0.37316874 0.744607 4.733662 0.8699742 -1.7066274 -0.8657469 1.0843772 0.7158452 2.6722236 0.05698511 3.0628922 -2.3413293 -0.43601906 0.4844874 -0.50100386 -2.9420724 -0.3705917 1.0326642 1.3111709 -0.9815987 -3.5763226 -1.4397193 0.5918785 0.846976 0.44250748 -0.92922205 2.309895 1.2322608 2.4600215 -1.0176412 0.07823781 1.706562 -2.9411018 2.2992728 -0.6323694 -0.70419705 3.0512936 -1.0485522 -3.4424412 0.008798033 -2.5313318 -0.3212456 0.12520188 0.9231176 4.5224214
really -1.4287771 -0.8457321 -0.45337367 1.6215311 3.1025836 -2.307946 -0.024890706 0.704153 -3.4888713 0.23666611 0.6192443 2.6047556 3.883918 0.25511727 1.3277161 -3.5679774 3.1286333 -1.6205114 -6.0209885 0.67142326 -1.0901985 1.555993 -2.1960042 0.9547845 -1.6469357 0.88427377 0.15627499 0.23836365 1.8756682 1.9559913 0.44376162 -2.102506 -3.416959 -1.9885422 1.1367012 5.64937 -0.63999623 -1.0177649 2.0855737 -0.42311838 -1.9217063 1.9541005 -0.3409127 -4.763007 3.756297 0.2997115 -0.7109446 -1.0615511 1.8742613 -3.1044207 0.08045576 2.1287425 -1.2692926 -0.73338705 -3.2048056 0.246529 0.6663215 4.694943 0.8442699 -1.7176816 -0.9048449 1.1420362 0.7181593 2.6463687 0.10235042 3.01031 -2.3578255 -0.40193343 0.4753224 -0.52118754 -2.9282222 -0.40933886 0.97650766 1.2870522 -0.963029 -3.6205494 -1.4195725 0.50912315 0.836755 0.5027789 -0.9089885 2.2951515 1.214499 2.401918 -0.97065616 0.11117135 1.6748594 -2.9534729 2.3744857 -0.61517847 -0.7333006 3.0100722 -1.0522767 -3.5086205 0.009410785 -2.641073 -0.2733874 0.0810788 0.9568467 4.5847125
aggressive -0.095860995 -0.037542876 -0.09793121 0.21700521 0.3572629 -0.19612823 0.02676557 0.12784915 -0.32784006 0.069446936 0.045788597 0.27413118 0.39261276 0.007739997 0.08997747 -0.31981653 0.34093365 -0.14918861 -0.583183 0.10663795 -0.067654446 0.22772108 -0.19061534 0.11479852 -0.12155367 0.062849894 -0.018287515 -0.026241595 0.17768684 0.21900126 0.102732226 -0.19960764 -0.39980775 -0.16109683 0.15730606 0.5429633 -0.062186692 -0.15348941 0.21668765 -0.021726778 -0.22536306 0.17753139 -0.0630997 -0.4876552 0.39963022 0.06756103 -0.089376904 -0.062667556 0.15839309 -0.32561535 -0.0027449958 0.18631606 -0.17338736 -0.021959683 -0.37780946 0.034803 0.06820704 0.541226 0.07206278 -0.19157104 -0.096204236 0.1520632 0.066565745 0.24098319 -0.032614443 0.35484168 -0.2473642 -0.07671949 0.10075645 -0.10434006 -0.276723 -0.028291313 0.13068531 0.18825956 -0.08734046 -0.33647424 -0.12517305 0.022929298 0.06430518 0.09332914 -0.13335711 0.30134028 0.11662283 0.23192792 -0.05908708 0.03052989 0.12091901 -0.3006662 0.23497833 -0.06296618 -0.05480509 0.3488907 -0.16553025 -0.33648294 0.026272668 -0.2904004 -0.06485381 -0.041252047 0.11934533 0.48911318
entertainment -0.6602272 -0.43965673 -0.2158214 0.75066686 1.4589922 -1.1019666 -0.00035536554 0.35222247 -1.6654054 0.12045147 0.28492823 1.2064596 1.8322349 0.124608554 0.66001636 -1.6219624 1.4405438 -0.77017784 -2.7632468 0.29181862 -0.4888798 0.7761634 -0.981799 0.45300734 -0.7605319 0.45589608 0.09368992 0.115593195 0.84116805 0.8723763 0.17198806 -0.97781634 -1.6070101 -0.939129 0.5218182 2.581021 -0.34194908 -0.5057132 0.99778783 -0.24558945 -0.88975847 0.9114774 -0.15769981 -2.1983528 1.7101959 0.15999022 -0.34036186 -0.51971024 0.9018896 -1.4237581 0.056338422 0.9864832 -0.5640864 -0.3505799 -1.5113018 0.18267989 0.34374455 2.1756928 0.4198074 -0.7806654 -0.39607206 0.49103433 0.29792377 1.2181993 0.052809693 1.370323 -1.0427787 -0.16210617 0.20200324 -0.24835442 -1.3463715 -0.14315352 0.4257384 0.6293139 -0.43621635 -1.6334323 -0.6726247 0.23611964 0.411334 0.19480205 -0.39677006 1.0719789 0.5959573 1.0969324 -0.46577707 0.031091832 0.75790036 -1.3822068 1.1281502 -0.2761924 -0.28455982 1.4207789 -0.46635523 -1.557281 -0.006864553 -1.1609777 -0.12828133 0.059398893 0.42863828 2.0861688
in -0.94620407 -0.6287104 -0.29811206 1.0873681 2.0948017 -1.5403813 -0.008424834 0.4398395 -2.3169656 0.20828818 0.41335687 1.6934444 2.5501704 0.1926783 0.9307524 -2.300445 2.0874264 -1.0563005 -3.986821 0.44109052 -0.70904374 1.0792077 -1.388607 0.6135317 -1.0950657 0.6423007 0.06709015 0.14375539 1.2629315 1.3231845 0.28951186 -1.3463264 -2.268585 -1.2705117 0.72792536 3.6722195 -0.446985 -0.65680945 1.3960701 -0.29891086 -1.2772925 1.2124933 -0.2550149 -3.203618 2.4810681 0.16179873 -0.4424235 -0.6829727 1.2888365 -2.015119 0.062917545 1.3980998 -0.8695688 -0.47958654 -2.1350472 0.23237687 0.46716863 3.1343744 0.5336136 -1.1620228 -0.5974375 0.73307014 0.4800477 1.7534643 0.04508599 2.0416074 -1.5029337 -0.28790805 0.2925588 -0.31893602 -1.9260056 -0.20965779 0.67296344 0.867767 -0.6160537 -2.3934846 -0.9556991 0.41586927 0.5402892 0.27542588 -0.6533814 1.5469208 0.78424996 1.6307417 -0.6795583 0.023116156 1.0959816 -1.9147177 1.5356396 -0.43271723 -0.4605255 2.0052528 -0.7139307 -2.231281 -0.028840797 -1.6859599 -0.21248339 0.083537586 0.63047045 2.9964201
your -1.1329824 -0.6910297 -0.38423765 1.2373681 2.4521887 -1.8352034 -0.03158695 0.54842216 -2.7494733 0.19626236 0.5176187 2.0394833 2.9768586 0.19952829 1.0334729 -2.801149 2.485281 -1.2486641 -4.710299 0.5034264 -0.85086715 1.2305917 -1.726509 0.79154 -1.2699919 0.7394919 0.113214895 0.21900253 1.4809163 1.4731622 0.29756397 -1.6288918 -2.6638768 -1.5365996 0.8419896 4.3874617 -0.48583874 -0.8118463 1.6658398 -0.36810762 -1.511624 1.4771308 -0.26379645 -3.7495494 2.8967419 0.15816967 -0.53773504 -0.8415254 1.4733815 -2.4114494 0.108490236 1.6834481 -1.0601715 -0.61317265 -2.4811027 0.23610918 0.511921 3.6476588 0.6499179 -1.3080043 -0.7375382 0.85999817 0.6144915 2.0639403 0.032575157 2.3684323 -1.8863621 -0.2944539 0.3794327 -0.4035145 -2.236374 -0.2745857 0.73857635 0.969474 -0.77659225 -2.8249512 -1.1145102 0.40153313 0.59772736 0.3734516 -0.6687537 1.7724912 0.93759793 1.8710668 -0.7319829 0.087185 1.3396629 -2.3176508 1.8568678 -0.46252745 -0.58790153 2.3604498 -0.8403315 -2.700662 0.006319043 -2.005578 -0.2124099 0.06437539 0.7237048 3.6020138
guests -0.15696318 -0.12892815 -0.016338669 0.13151512 0.28290793 -0.24778464 0.0026034934 0.036522582 -0.30262306 -0.010155348 0.04815366 0.22210877 0.30155882 0.073467486 0.17728318 -0.28478962 0.24258709 -0.18737519 -0.5014497 0.09114879 -0.051095434 0.16251668 -0.14790548 0.066299714 -0.12492474 0.05699005 -0.04448061 0.067826636 0.19409311 0.21676685 0.066096306 -0.20298237 -0.3512181 -0.15987226 0.06417019 0.5495603 -0.06351514 -0.1235811 0.155783 -0.014822316 -0.14177124 0.19523203 -0.012803674 -0.473603 0.34473896 0.006201664 -0.04956326 -0.07256299 0.2237501 -0.27858582 0.040757768 0.2269082 -0.081308514 -0.029788068 -0.28550646 -0.017827542 0.06071827 0.4502774 0.10939641 -0.20832631 -0.114015475 0.053457003 0.08761348 0.18369804 0.00619914 0.3158763 -0.24185199 -0.020333193 0.09113948 -0.09788111 -0.24819599 -0.07310606 0.0370207 0.1383772 -0.03608221 -0.35176066 -0.10778851 0.051987983 0.07776959 0.030014854 -0.08001053 0.19854717 0.13437475 0.21228647 -0.03717849 0.03548222 0.1616283 -0.2173794 0.15769562 -0.08667365 -0.07469646 0.22402039 -0.11822162 -0.25472635 -0.03483497 -0.2831156 -0.047791608 -0.037174463 0.062339738 0.36877525
amp -1.8417627 -1.1432732 -0.5414311 2.0487578 4.010778 -2.975011 -0.051068243 0.8683 -4.4325614 0.3567228 0.81396013 3.2756698 4.8914256 0.32422784 1.8151901 -4.504979 3.9768612 -2.006706 -7.623265 0.86691993 -1.3911636 2.047396 -2.700943 1.2107604 -2.109421 1.1846136 0.16638847 0.31941512 2.375397 2.5023458 0.5033951 -2.6311193 -4.3817115 -2.4371102 1.4267462 7.052347 -0.83774084 -1.236483 2.683284 -0.59262747 -2.443373 2.3902328 -0.52746004 -6.116955 4.6961493 0.28249523 -0.8288183 -1.340522 2.436857 -3.937216 0.09633136 2.7398365 -1.6869917 -0.9521692 -4.0854697 0.38374215 0.8651796 5.9291816 1.0729008 -2.1870282 -1.1585727 1.4151745 0.956031 3.329335 0.045626972 3.840085 -2.9793966 -0.5548303 0.60952973 -0.61283237 -3.6866608 -0.42138675 1.2735491 1.6319861 -1.1912701 -4.5928264 -1.8196844 0.68548626 1.0155306 0.5340395 -1.1405175 2.9048629 1.4966643 3.0820923 -1.2599299 0.113921545 2.146421 -3.723329 2.9456623 -0.78693974 -0.8851342 3.8217301 -1.3697395 -4.290892 -0.03131997 -3.2719424 -0.3573921 0.118396044 1.2036496 5.737302
they -1.4986922 -0.9289053 -0.49449232 1.7126334 3.3600013 -2.4587564 -0.05808974 0.67004013 -3.6325874 0.27955946 0.63496804 2.7520268 4.1087656 0.2932481 1.4617447 -3.7994602 3.2989528 -1.6809735 -6.3798676 0.7238523 -1.1566182 1.6863838 -2.3001797 0.9786426 -1.7405435 0.9357403 0.09260541 0.25204816 2.0366654 2.0172997 0.48604342 -2.2574317 -3.6638367 -2.09774 1.2153032 6.0081916 -0.6556312 -1.0751755 2.218526 -0.4785914 -2.035142 2.0389426 -0.37476403 -5.0376997 3.9971168 0.33512777 -0.72059524 -1.0957214 2.0325797 -3.3147914 0.1265455 2.3018634 -1.3902229 -0.7906381 -3.351597 0.33745244 0.7424836 5.00506 0.93694574 -1.8099174 -0.9534252 1.1821415 0.7281162 2.7595356 0.08805885 3.1901834 -2.4687483 -0.43219048 0.47181287 -0.54234475 -3.08769 -0.3984875 1.0741954 1.3869827 -1.0038043 -3.797333 -1.5017391 0.5749857 0.8680418 0.5227045 -1.0167563 2.4254653 1.2348384 2.6173089 -0.988423 0.05562116 1.775973 -3.0897646 2.466649 -0.5977719 -0.774554 3.1607625 -1.1232197 -3.6752064 -0.029662844 -2.7822561 -0.29092357 0.07602703 1.0099143 4.857892
have -1.0750852 -0.6134797 -0.30814937 1.1997186 2.317242 -1.682628 -0.023473207 0.5045983 -2.5784447 0.12685858 0.48181477 1.8592983 2.8909743 0.19902408 0.9900412 -2.6206384 2.2601173 -1.2007147 -4.4402223 0.47655562 -0.7846439 1.1145614 -1.6453681 0.68606025 -1.1860418 0.63435036 0.04944678 0.18535957 1.3981056 1.4365445 0.37229815 -1.527199 -2.514837 -1.4411124 0.86471474 4.1510806 -0.40499553 -0.743371 1.5836493 -0.33283094 -1.3921268 1.4088196 -0.25417617 -3.4870331 2.7165956 0.25841752 -0.4992022 -0.7746079 1.3937386 -2.296241 0.074095994 1.6313841 -0.9179857 -0.5470108 -2.3325424 0.2070342 0.45467958 3.3843925 0.6813393 -1.2400769 -0.613817 0.82510763 0.4849853 1.891818 0.030766027 2.1749268 -1.7518153 -0.3543506 0.33625245 -0.37962958 -2.1820385 -0.27200702 0.7309353 0.938115 -0.72422427 -2.6086655 -1.0446049 0.36981452 0.681868 0.34823418 -0.6250673 1.7455106 0.8948337 1.7874515 -0.729551 0.04768068 1.2374889 -2.2147481 1.646071 -0.45375702 -0.57961255 2.2281313 -0.7981359 -2.567557 -0.024529414 -1.9068514 -0.23608604 0.07809577 0.6525676 3.3691924
little -0.9575899 -0.6171956 -0.32563946 1.1068505 2.1201005 -1.6283021 -0.03980052 0.4776 -2.4097326 0.15690865 0.41065133 1.8210899 2.6843655 0.18979813 0.96090055 -2.4318664 2.1452694 -1.0694047 -4.132714 0.5019722 -0.7775405 1.1104624 -1.4663903 0.66135234 -1.1317325 0.6278409 0.08166686 0.16647853 1.2954855 1.3339759 0.3052637 -1.4033254 -2.3619103 -1.3617281 0.790275 3.8669062 -0.43629557 -0.68278795 1.446082 -0.25692517 -1.2956232 1.3205299 -0.2775778 -3.3145754 2.5594804 0.18323167 -0.43444654 -0.7544267 1.3273579 -2.135149 0.024530312 1.4554005 -0.89593446 -0.5001361 -2.2458358 0.18619832 0.49545565 3.2229404 0.5754124 -1.1728126 -0.65335286 0.760538 0.4788941 1.7706176 0.016386097 2.0813122 -1.5769242 -0.27758762 0.32341805 -0.35360676 -2.034936 -0.2826279 0.64502627 0.91361064 -0.6744508 -2.4474113 -0.9809446 0.37948024 0.53173435 0.29905272 -0.64197963 1.6020088 0.8698432 1.7126914 -0.69152963 0.056213826 1.1844728 -2.0241654 1.5704281 -0.41347227 -0.5007912 2.0479712 -0.7127028 -2.307386 -0.0038879325 -1.7907944 -0.18602224 0.108866185 0.63352454 3.1487792
recourse -0.13571692 -0.0219036 -0.031356093 0.077189356 0.18062864 -0.19545844 0.0036464182 0.10490613 -0.20739825 0.004923131 -0.011010031 0.22489917 0.23727317 -0.016232517 0.10465468 -0.2995443 0.19682747 -0.1704249 -0.44510072 0.024770984 -0.1010079 0.13392591 -0.16725345 0.10902465 -0.105650045 0.10446515 -0.012020137 0.035279997 0.086915724 0.10657309 0.083083205 -0.12946884 -0.23702836 -0.14276987 0.13120174 0.41119567 -0.07896508 -0.07954448 0.18604344 -0.015920307 -0.13640125 0.13490379 -0.015898572 -0.33351377 0.30396065 0.041551933 -0.090084575 -0.065453894 0.07874899 -0.16826826 0.0021611114 0.1850749 -0.12080038 -0.025336128 -0.2436405 0.0063638105 0.07371745 0.30413672 0.039336924 -0.116416 -0.1006311 0.124034986 0.059640992 0.19575934 0.024874603 0.16805035 -0.20851496 0.0015046021 0.04561184 -0.055659022 -0.22954401 -0.063246086 0.034738455 0.053003374 -0.030618524 -0.28129077 -0.089451894 -0.016058585 0.009753153 0.050757054 -0.055547155 0.17788075 0.10560716 0.18635336 -0.08019841 -0.035813738 0.12636183 -0.20648497 0.2098767 0.0027123997 -0.050330378 0.18432038 -0.039446857 -0.21067396 0.023377027 -0.2031773 -0.061086785 -0.02742354 0.024420995 0.3240473
and -0.8327378 -0.53486276 -0.260353 0.9670949 1.852093 -1.3690447 -0.027683945 0.3915601 -2.064398 0.15025012 0.36824486 1.5148818 2.2720482 0.15763009 0.83586454 -2.0617998 1.8397928 -0.9329863 -3.5364716 0.41892985 -0.62734634 0.95255834 -1.256903 0.55122143 -0.9842874 0.5651326 0.080447376 0.1433122 1.1255039 1.1672596 0.23992656 -1.2012756 -2.0249426 -1.1456988 0.65388507 3.2690043 -0.38892463 -0.5736222 1.2229707 -0.25090796 -1.1377152 1.0795593 -0.25444338 -2.8293388 2.1781034 0.1395048 -0.3923528 -0.61059606 1.1145222 -1.8125119 0.05836353 1.2570484 -0.76273614 -0.42049077 -1.9050692 0.19417785 0.43179244 2.7584038 0.49457532 -1.0041934 -0.52806187 0.6394263 0.44312292 1.5304958 0.04257723 1.7974298 -1.3561963 -0.24315174 0.26074478 -0.28811786 -1.7103137 -0.19054301 0.5986831 0.78737736 -0.551594 -2.1067502 -0.82584 0.34489983 0.47193336 0.23521475 -0.5295198 1.3613143 0.7085802 1.448453 -0.5930017 0.04069386 0.9564615 -1.6988046 1.3660331 -0.37795562 -0.38916084 1.7738391 -0.6079306 -1.9936218 -0.0070952834 -1.4823016 -0.18901165 0.0744178 0.5469134 2.6527452
a -0.684097 -0.4307697 -0.21102874 0.8068862 1.5175543 -1.078907 -0.022040367 0.31858408 -1.6684703 0.13191094 0.3070443 1.2518604 1.8740516 0.13543905 0.6726232 -1.6901256 1.5049261 -0.7746456 -2.8823602 0.32463348 -0.5140046 0.7872095 -1.0263865 0.44758254 -0.8043582 0.46149343 0.07606127 0.14662108 0.93178004 0.9308687 0.17967157 -0.9983603 -1.6577653 -0.9314146 0.5291886 2.6712508 -0.34335455 -0.4661169 0.96925104 -0.20890927 -0.94346356 0.8872466 -0.21395779 -2.287554 1.7563175 0.09752947 -0.31941363 -0.5173024 0.89880973 -1.4561871 0.06037458 1.0358049 -0.6550563 -0.35038435 -1.5681 0.1627245 0.32734 2.2319398 0.42711422 -0.821356 -0.43562952 0.5333489 0.3549774 1.2488415 0.024112694 1.4420375 -1.1115917 -0.17870337 0.22083926 -0.19467652 -1.3822017 -0.153481 0.48197567 0.6088701 -0.45683458 -1.7003535 -0.6822653 0.2639076 0.3852759 0.19362693 -0.44718838 1.1099657 0.56801915 1.1856147 -0.480856 0.041723818 0.7868151 -1.3991879 1.1307623 -0.2983162 -0.32547492 1.4341961 -0.50859594 -1.6096548 0.006677661 -1.2069815 -0.14869049 0.08438592 0.44318503 2.1497345
big -0.86314446 -0.52709913 -0.25053486 1.0122471 1.8637174 -1.4359561 0.01628324 0.43996948 -2.0909846 0.14812745 0.42467505 1.6088709 2.3394744 0.16105483 0.82654625 -2.145635 1.8810819 -0.93481165 -3.6808798 0.400529 -0.6920348 0.9941742 -1.310411 0.60347134 -1.0129113 0.5596328 0.0925462 0.1359903 1.1302885 1.150854 0.29150867 -1.305963 -2.1119137 -1.1696881 0.6305039 3.397855 -0.4233825 -0.62803406 1.2351512 -0.30368903 -1.1757902 1.1225594 -0.22819684 -2.8862324 2.258314 0.11764222 -0.37083223 -0.61855435 1.1821635 -1.8809127 0.0931967 1.2644831 -0.8274376 -0.4750925 -1.98026 0.16172446 0.44424057 2.8469918 0.49216345 -1.0120909 -0.55880696 0.70476323 0.46529445 1.613248 -0.0031800696 1.793943 -1.4509946 -0.28735673 0.25970575 -0.26964787 -1.798202 -0.20411359 0.60749257 0.7671229 -0.576081 -2.206098 -0.85363525 0.33188188 0.52084863 0.27352268 -0.5294665 1.4145551 0.776748 1.4745599 -0.5712071 0.04431606 0.98695135 -1.8072796 1.4478492 -0.39703453 -0.42365447 1.7947628 -0.6576365 -2.0813923 -0.0337672 -1.5920378 -0.14343682 0.077834144 0.5835088 2.7275913
bad -1.1086619 -0.660794 -0.30589598 1.2894739 2.4601657 -1.8125371 -0.024799526 0.52645063 -2.757308 0.19720636 0.5170641 2.0095928 3.0469515 0.19592063 1.0775619 -2.7739737 2.448747 -1.2295214 -4.702134 0.5552647 -0.84010726 1.2895395 -1.7164063 0.75869846 -1.3120649 0.7436316 0.13205616 0.22665747 1.5099772 1.4990164 0.31015942 -1.6349542 -2.7140594 -1.4918419 0.8328295 4.3562994 -0.5456312 -0.7771115 1.6481694 -0.31990126 -1.5292662 1.4899741 -0.30918902 -3.7602785 2.919059 0.18791029 -0.5548285 -0.789882 1.4693356 -2.4390726 0.058458913 1.6948496 -1.0018895 -0.591607 -2.5344968 0.2193837 0.51850754 3.6295254 0.64318717 -1.3373394 -0.733941 0.87901443 0.5652735 2.0650837 0.07726069 2.3575885 -1.7981851 -0.32512853 0.34730595 -0.37435254 -2.278032 -0.2881742 0.81230986 1.0174212 -0.7619924 -2.8024654 -1.1442031 0.43553022 0.6106565 0.3838603 -0.7443566 1.7917057 0.977578 1.912379 -0.7641874 0.08051173 1.3236238 -2.2906804 1.8414315 -0.48131177 -0.5273976 2.367129 -0.86487263 -2.6391428 0.02339792 -2.0381713 -0.24008228 0.1149966 0.7371186 3.5624099
thing -0.87475103 -0.54820615 -0.29394618 0.9882094 1.9255304 -1.4470897 -0.039710097 0.44888315 -2.1596532 0.14023219 0.42697975 1.6318231 2.4071891 0.19588704 0.88794166 -2.1927388 1.919654 -0.98812747 -3.7577872 0.4133835 -0.65213263 0.9728017 -1.3439059 0.63682455 -1.0359962 0.57957774 0.08438943 0.16866525 1.1465653 1.1852354 0.29875124 -1.2810112 -2.1155553 -1.2231729 0.6959904 3.5131166 -0.41911662 -0.6350293 1.2958488 -0.25989226 -1.2211515 1.1813484 -0.23182197 -3.0087817 2.3054729 0.21235885 -0.40274745 -0.68379456 1.1526136 -1.9593989 0.031696275 1.3594172 -0.80030614 -0.46466926 -1.9848343 0.17544018 0.43846008 2.8976676 0.5441709 -1.0649841 -0.5389415 0.68634367 0.46924907 1.6116008 0.07205594 1.8481753 -1.4479225 -0.28648287 0.2713525 -0.35180852 -1.7993181 -0.2586145 0.6330739 0.81999254 -0.6196845 -2.2454655 -0.84215206 0.32262176 0.52064514 0.25930914 -0.5931756 1.4037642 0.764546 1.5153105 -0.6098816 0.026800275 1.0253199 -1.8558253 1.4718126 -0.38345551 -0.46491787 1.8487141 -0.67536277 -2.150822 0.024053765 -1.6081011 -0.19435525 0.11035459 0.608347 2.8216596
about -1.6753271 -0.98716635 -0.5224062 1.8205568 3.5845702 -2.659945 -0.054359853 0.78274417 -4.017348 0.29662108 0.75252384 3.0134673 4.464297 0.27096236 1.5468087 -4.0766697 3.5994065 -1.8686637 -6.92591 0.75186604 -1.2748026 1.848737 -2.4871078 1.1354105 -1.8793874 1.0930501 0.12535363 0.266363 2.133333 2.2644076 0.55893016 -2.4139624 -3.9057455 -2.2861712 1.3053256 6.4462943 -0.75765955 -1.1152158 2.4240437 -0.5186961 -2.1770597 2.174564 -0.39936462 -5.495781 4.249444 0.29196084 -0.76324975 -1.1763153 2.1549933 -3.5586522 0.092221096 2.4438214 -1.5098568 -0.8239543 -3.690101 0.30229008 0.7570092 5.392279 0.99133444 -1.9702842 -1.0801978 1.2866321 0.81778014 3.0184112 0.09360818 3.4852564 -2.7016144 -0.47920623 0.5055772 -0.58100045 -3.3718128 -0.42433792 1.0839305 1.472866 -1.0615437 -4.152962 -1.6522729 0.57096756 0.95727575 0.55513704 -1.0159347 2.6390064 1.4272637 2.8167095 -1.1404996 0.12344969 1.9211075 -3.4068084 2.6804826 -0.6679836 -0.83004415 3.4662054 -1.2322662 -3.988151 -0.026516888 -2.9747157 -0.3557778 0.09222042 1.0811642 5.2503386
it -0.9430821 -0.56081396 -0.2958112 1.1376841 2.1534917 -1.5292283 0.009382131 0.43928245 -2.3569934 0.1672369 0.44520232 1.7581456 2.659328 0.19425656 0.9525263 -2.4240127 2.0999017 -1.1188078 -4.049269 0.47405088 -0.71313107 1.0633222 -1.4834683 0.6604731 -1.1177939 0.63392526 0.08594941 0.16928168 1.2801979 1.3402774 0.29720062 -1.4400175 -2.338147 -1.3667281 0.76797134 3.8316228 -0.44327593 -0.65377486 1.410711 -0.30865794 -1.3517815 1.322843 -0.25412205 -3.2122934 2.5343325 0.23461437 -0.45010352 -0.7407786 1.26242 -2.1304097 0.042458188 1.4912605 -0.8549025 -0.459148 -2.144441 0.21103998 0.47027564 3.1591947 0.63631254 -1.172166 -0.58150935 0.7834766 0.49041668 1.7810873 0.030311642 2.0522442 -1.5877554 -0.29283682 0.28371614 -0.36150438 -1.9899769 -0.28130126 0.65498316 0.9012531 -0.6361402 -2.4207692 -0.9724326 0.3926992 0.56610173 0.34337887 -0.61871254 1.5907062 0.79177475 1.691675 -0.68208367 0.07166923 1.1423204 -2.0222552 1.5488575 -0.4234766 -0.49592328 2.0109906 -0.74819404 -2.359629 -0.042585492 -1.7301561 -0.18190399 0.080894634 0.6433666 3.1142762
seriously -0.62393045 -0.39070138 -0.21451937 0.7058807 1.4236795 -1.0257818 -0.044142585 0.26816058 -1.6189666 0.11897349 0.2596518 1.181403 1.7585777 0.11645102 0.64138246 -1.6374315 1.4185402 -0.7614636 -2.7573886 0.30216873 -0.4816475 0.7638792 -0.96316004 0.4188617 -0.747462 0.43578538 0.026806189 0.08952005 0.8767183 0.90119195 0.23368111 -0.9175593 -1.5522923 -0.91728103 0.5048606 2.5125666 -0.28954688 -0.44511288 0.920437 -0.18822561 -0.90838194 0.82893187 -0.21384832 -2.2256553 1.6894016 0.15312414 -0.31863487 -0.49200472 0.8703811 -1.3755012 0.06513317 1.0111241 -0.6266772 -0.36887264 -1.462512 0.14497018 0.311579 2.09166 0.37901178 -0.774949 -0.40967676 0.48725984 0.32185403 1.2295475 0.015283016 1.3401223 -1.0548825 -0.19268988 0.21716885 -0.2138068 -1.3355858 -0.15172163 0.42552316 0.6011006 -0.39830324 -1.6226951 -0.65550077 0.28554556 0.4138615 0.1632623 -0.40193802 1.0706673 0.5787665 1.1424562 -0.45293942 0.053589135 0.7332998 -1.3384738 1.0708531 -0.26342326 -0.2875921 1.4055761 -0.47807065 -1.576816 0.020740965 -1.161145 -0.148639 0.049554188 0.44898427 2.089879
would -1.3127848 -0.7212453 -0.44120213 1.528403 2.8614464 -2.1128526 0.024092184 0.60883266 -3.2617178 0.15601894 0.62515265 2.427524 3.6793437 0.2767653 1.2986552 -3.2779982 2.8128932 -1.5069591 -5.5149827 0.56594443 -1.0138205 1.4430009 -2.068754 0.92814964 -1.5042665 0.8303501 0.104418665 0.22973786 1.7908648 1.883231 0.44184917 -1.9353384 -3.182004 -1.9115441 1.125978 5.2276583 -0.54724276 -0.9037725 1.8852953 -0.37601632 -1.7772119 1.8601437 -0.32760903 -4.3844953 3.488907 0.35783404 -0.7060225 -1.0141255 1.7528131 -2.9312167 0.022614801 2.0819826 -1.1481637 -0.6152961 -2.9255202 0.17728044 0.67988056 4.336615 0.82753944 -1.6101112 -0.760148 1.0155681 0.6042017 2.470847 0.052082602 2.827368 -2.1291938 -0.37422487 0.3729105 -0.44135672 -2.7160404 -0.369775 0.86643595 1.2723886 -0.9240541 -3.3421934 -1.3651199 0.5102681 0.8390873 0.48282588 -0.7968555 2.1913774 1.1107249 2.3268774 -0.8987899 0.06469414 1.6259992 -2.8157682 2.1227932 -0.5324213 -0.6630784 2.7443166 -0.9955052 -3.3019867 -0.03636954 -2.3616495 -0.31372744 0.15072845 0.84250367 4.2806163
pay -0.9548849 -0.5698716 -0.30477256 1.0852823 2.103833 -1.5759449 -0.02750817 0.4312626 -2.3943748 0.135654 0.463512 1.78806 2.678033 0.18778248 0.9194624 -2.423019 2.061237 -1.0892904 -4.1170344 0.4879598 -0.77095073 1.098562 -1.5218096 0.6816331 -1.090459 0.58539593 0.06070813 0.17458662 1.3244828 1.3576298 0.3300348 -1.4061975 -2.3177173 -1.3311262 0.7895995 3.8287394 -0.4716049 -0.6645044 1.4518944 -0.29558304 -1.3359028 1.2715983 -0.2302611 -3.2514026 2.5288625 0.22915906 -0.49045226 -0.7397039 1.2663577 -2.1101978 0.0748275 1.4286685 -0.8458214 -0.49900126 -2.180208 0.20435624 0.43987533 3.1501772 0.56124514 -1.1515244 -0.5877931 0.7921903 0.4710886 1.7855887 0.07341591 1.9989288 -1.5838051 -0.24825299 0.29660982 -0.31416202 -1.9631814 -0.2649977 0.65108144 0.865386 -0.6316817 -2.445583 -0.939543 0.3187727 0.5797936 0.3380075 -0.62532884 1.558283 0.8013662 1.6435983 -0.70055866 0.08504673 1.1012529 -1.9845424 1.5429884 -0.38517728 -0.50550646 1.9940721 -0.7575377 -2.3607607 -0.013942412 -1.7682102 -0.21374327 0.045745682 0.64191544 3.117472
flight -0.68771094 -0.51738316 -0.15862617 0.81219184 1.4739666 -1.083555 -0.056963574 0.36026707 -1.6596508 0.11985502 0.28345776 1.2500659 1.8893931 0.181718 0.7574734 -1.6906415 1.554542 -0.7665235 -2.9001315 0.33764845 -0.52386665 0.7990419 -0.95615315 0.42884228 -0.84827596 0.41340142 0.03257091 0.09493456 0.92425346 1.026515 0.15067916 -0.9436718 -1.6725038 -0.8577607 0.53242576 2.5520341 -0.33624354 -0.4163751 0.98611253 -0.15744115 -0.9444316 0.8253712 -0.3022609 -2.3212934 1.7172219 0.05758953 -0.316491 -0.5146553 0.88345563 -1.4806312 0.033358283 1.0272065 -0.653083 -0.35823688 -1.5786918 0.20829646 0.4043257 2.2616196 0.4271354 -0.79959524 -0.4729518 0.4906031 0.36214405 1.2505481 0.006027516 1.4492269 -1.0157357 -0.20170695 0.22839272 -0.20168781 -1.3923364 -0.13616112 0.5200154 0.6153096 -0.3898318 -1.6910007 -0.6142907 0.29956755 0.39423922 0.1505385 -0.43223086 1.054868 0.57743025 1.2092402 -0.47605366 0.0889079 0.7175602 -1.3550432 1.1143109 -0.35313788 -0.27968296 1.4756981 -0.50871235 -1.5197625 0.006779857 -1.2161065 -0.21277294 0.08997623 0.47916675 2.0682764
for -0.6576517 -0.38517964 -0.22674444 0.74847245 1.4191072 -1.1158615 0.0008545734 0.31827226 -1.643312 0.12739824 0.2913919 1.2079586 1.7622685 0.10131347 0.6333911 -1.6362149 1.431253 -0.7523621 -2.8186212 0.3404558 -0.5421047 0.763315 -1.0178822 0.4567541 -0.76218456 0.4412034 0.049845103 0.12782288 0.86743444 0.9030188 0.22114517 -0.9801793 -1.592481 -0.9249091 0.490645 2.614052 -0.28310603 -0.49493235 0.9503906 -0.18989043 -0.8714398 0.871296 -0.15106466 -2.273358 1.7425938 0.10968201 -0.31409407 -0.49330404 0.86420864 -1.408365 0.06729425 0.99762744 -0.6108232 -0.35794264 -1.496452 0.112521425 0.35226646 2.1699352 0.36711594 -0.8020361 -0.4624735 0.5429542 0.34665573 1.2244953 0.006409455 1.3979726 -1.0935118 -0.19308019 0.19037934 -0.22016498 -1.3847743 -0.16629793 0.44810835 0.5797758 -0.4734893 -1.7097884 -0.6810806 0.2223633 0.3854372 0.18958281 -0.41584563 1.0930276 0.59810543 1.1125393 -0.42524302 0.041667566 0.8017977 -1.4000676 1.0995884 -0.2684063 -0.3455883 1.4195262 -0.50118655 -1.5904266 0.0076387036 -1.2088583 -0.13180493 0.05343067 0.41925403 2.1376588
seats -1.440482 -0.91994417 -0.44337946 1.6713824 3.2104087 -2.3488104 -0.020487549 0.6840329 -3.568084 0.2604695 0.65155977 2.6530695 3.9581811 0.2896897 1.3950626 -3.6149433 3.1712654 -1.6711859 -6.1807423 0.6716247 -1.0929766 1.6536281 -2.213476 0.95698285 -1.6728015 0.95275974 0.09462911 0.22972769 2.000503 2.0121498 0.48454002 -2.111474 -3.5054102 -2.0063 1.1281787 5.7264132 -0.6848421 -1.044485 2.1075711 -0.44984668 -2.001697 1.9341733 -0.43890226 -4.8770523 3.8286493 0.2498003 -0.6768764 -1.0656419 1.9006919 -3.179994 0.10912107 2.1763768 -1.3726317 -0.77699685 -3.2977254 0.31812328 0.711449 4.794483 0.8649376 -1.7952315 -0.9427747 1.1348479 0.69332486 2.6935055 0.048440855 3.0591912 -2.399075 -0.46109164 0.5060771 -0.4920892 -2.957861 -0.3627086 1.0010067 1.3534324 -0.99761075 -3.6878881 -1.4277658 0.5633418 0.87746716 0.4881817 -0.9445666 2.3296869 1.2785403 2.4857912 -1.0122163 0.12279744 1.6799676 -3.019389 2.4215865 -0.66703796 -0.7262641 3.0604658 -1.0887377 -3.4923525 0.0067681186 -2.643476 -0.2661558 0.09791447 0.9878964 4.661209
that -1.1000718 -0.67649585 -0.34709376 1.3070215 2.4383724 -1.8066581 -0.019717976 0.4950233 -2.6980357 0.19491091 0.48420107 2.0265796 3.079359 0.22456841 1.065788 -2.7517455 2.385217 -1.2645228 -4.667066 0.5320061 -0.8682548 1.2303653 -1.677371 0.7312971 -1.2899677 0.70427287 0.109992385 0.18004774 1.486436 1.5139024 0.38238043 -1.63171 -2.7137609 -1.5460913 0.87236273 4.4147897 -0.49279076 -0.8132586 1.6190432 -0.3403831 -1.5214167 1.5245522 -0.28369904 -3.700549 2.9019349 0.2593465 -0.5456975 -0.8295927 1.490299 -2.4625597 0.06152177 1.7131674 -0.9919632 -0.55449593 -2.5225425 0.25486737 0.5063285 3.6557388 0.6897558 -1.3403141 -0.6861071 0.870761 0.56175125 2.062123 0.07120253 2.3485975 -1.8309273 -0.34947014 0.32497886 -0.38986406 -2.309702 -0.3030958 0.7876767 1.043275 -0.75241035 -2.8069704 -1.102239 0.43935406 0.6621012 0.392434 -0.7350072 1.8110768 0.93607354 1.9077644 -0.7753651 0.08037612 1.3150448 -2.3037024 1.7899626 -0.48957887 -0.56155235 2.3380094 -0.85513544 -2.7266922 -0.0075498917 -2.0276895 -0.23345712 0.086249985 0.7186093 3.5625334
this -1.1316673 -0.67789024 -0.3723598 1.3194151 2.509444 -1.8211422 -0.013255188 0.5385361 -2.7780228 0.2115419 0.5069049 2.0753286 3.133136 0.23734213 1.0795301 -2.8339138 2.50439 -1.2978433 -4.815503 0.537934 -0.90206325 1.2818089 -1.7600479 0.7866127 -1.3349112 0.73004353 0.11473858 0.19626704 1.5371351 1.5730666 0.35708657 -1.6878079 -2.7436988 -1.5574259 0.8953252 4.4669886 -0.50323683 -0.81019247 1.681633 -0.35373682 -1.566459 1.5156102 -0.33589622 -3.8347223 2.9916005 0.2034854 -0.5454002 -0.86194783 1.5102394 -2.474444 0.06613686 1.7529927 -1.0545682 -0.5826202 -2.5661945 0.25877962 0.5258214 3.7507265 0.69277084 -1.3572968 -0.73582506 0.9101533 0.5926504 2.0951521 0.016010957 2.431821 -1.890082 -0.35769847 0.34314686 -0.4157686 -2.308115 -0.31262818 0.77202195 1.0319078 -0.77295876 -2.8952644 -1.1190034 0.411302 0.6862848 0.3713091 -0.7523845 1.800989 0.9723394 1.9627736 -0.76694196 0.06648629 1.3148332 -2.3862 1.883918 -0.49010485 -0.5701531 2.411478 -0.867139 -2.7738497 -0.048250653 -2.0377629 -0.2050199 0.07521541 0.7599516 3.6778688
playing -0.21279222 -0.14008817 -0.10064207 0.18508282 0.39196447 -0.3225098 -0.013355412 0.060394526 -0.40040308 0.020809218 0.102610946 0.2844908 0.49285483 0.052283235 0.18584916 -0.42843643 0.3837732 -0.22846475 -0.72843 0.050804116 -0.108764574 0.18563741 -0.27824032 0.12686983 -0.16710848 0.06563902 -0.0067347703 0.03387612 0.21209976 0.26773742 0.07987193 -0.20022608 -0.38710296 -0.18937513 0.09565971 0.6300438 -0.026927996 -0.076980606 0.26191816 -0.102957524 -0.18873453 0.24690925 0.0040286607 -0.5900844 0.41283146 0.061761934 -0.062215205 -0.14015242 0.27567837 -0.3286285 0.008867604 0.22859754 -0.18244107 -0.13505778 -0.41962275 0.07840855 0.11056614 0.58076227 0.068341225 -0.22322457 -0.12722342 0.16829216 0.11992953 0.27959675 -0.040989086 0.35052916 -0.2734114 -0.025856081 0.04830263 -0.10154793 -0.38552698 -0.03921951 0.15018705 0.16639291 -0.12533659 -0.44287083 -0.18555407 0.058711734 0.071181476 0.06438931 -0.14365755 0.22055757 0.10143517 0.26708856 -0.12771575 -0.030087603 0.18240592 -0.38964874 0.24478179 -0.062164277 -0.040497433 0.3661026 -0.07599663 -0.44188285 0.01232165 -0.27700692 -0.05251002 0.023889417 0.09958942 0.5769546
only -1.3784493 -0.8973681 -0.45067626 1.6065656 3.114878 -2.3220508 -0.07178269 0.6372204 -3.509528 0.27165553 0.65327233 2.6099381 3.8544855 0.2799219 1.390395 -3.546172 3.1173825 -1.6053159 -6.012998 0.653284 -1.0721518 1.6368171 -2.1555266 0.9322964 -1.6439276 0.9300138 0.118551835 0.24553421 1.9170102 1.9215373 0.47294465 -2.08912 -3.4270892 -1.9255875 1.1267911 5.6108046 -0.6490606 -0.98649675 2.0423498 -0.463404 -1.9688231 1.8668717 -0.4006497 -4.770642 3.6912687 0.25525364 -0.68071944 -1.069106 1.8756235 -3.079585 0.10900065 2.1426783 -1.3512474 -0.75475067 -3.233931 0.30567586 0.7082963 4.6986685 0.88303953 -1.6970258 -0.8957045 1.0827044 0.70450586 2.6181226 0.04888683 3.0261598 -2.3503523 -0.41945437 0.45228872 -0.5165617 -2.939597 -0.37523034 1.0072757 1.2898232 -0.9380714 -3.589205 -1.4509779 0.55912614 0.852455 0.4290802 -0.9295954 2.2778637 1.2006655 2.4355574 -1.0013003 0.10597277 1.6830776 -2.9108937 2.3438523 -0.6088394 -0.72980165 2.995816 -1.0415916 -3.409779 -0.031029643 -2.541464 -0.26594338 0.101605274 0.8985257 4.537849
flying -1.3060387 -0.7632301 -0.37994865 1.4334896 2.857892 -2.1378407 -0.02165154 0.62092143 -3.1830492 0.20735446 0.5668105 2.4099517 3.5620205 0.26736498 1.2177383 -3.2732708 2.8592753 -1.4503378 -5.5007243 0.60097575 -1.005877 1.4666145 -2.009329 0.91585755 -1.4716924 0.87721753 0.07604689 0.27123064 1.7399347 1.7963365 0.3693311 -1.9480442 -3.0930917 -1.772719 0.99775225 5.116178 -0.613055 -0.9183274 1.9616108 -0.40377504 -1.7488356 1.6803772 -0.34773707 -4.37012 3.4105344 0.25971508 -0.65292007 -0.99414605 1.7062798 -2.8235698 0.054600775 1.980816 -1.2030224 -0.69588727 -2.9434152 0.23331283 0.6385111 4.221031 0.7377359 -1.5629917 -0.8225004 0.9864878 0.67182654 2.403552 0.021159362 2.7247539 -2.1627135 -0.39824998 0.4433024 -0.49193922 -2.6471164 -0.34204566 0.9566583 1.1338042 -0.867608 -3.287848 -1.2628235 0.42752898 0.76365 0.46125966 -0.80353385 2.0935419 1.1271439 2.2204614 -0.91726923 0.07668735 1.5031137 -2.697226 2.1470106 -0.57411474 -0.6306197 2.758923 -0.9878196 -3.1489213 0.0235297 -2.3406215 -0.27807537 0.14497481 0.87016726 4.197767
va -0.40138042 -0.28040776 -0.116894834 0.49309447 0.890566 -0.63142717 0.010243572 0.15174013 -0.9190772 0.11106873 0.16667455 0.6775762 1.1027926 0.09175226 0.42531458 -1.0076056 0.90021914 -0.44998857 -1.6485126 0.16448238 -0.33945075 0.45213842 -0.591917 0.30938834 -0.49123937 0.23956822 -0.008017625 0.041166503 0.5483145 0.5256731 0.14750747 -0.5326457 -0.94708776 -0.5268815 0.33465376 1.5394086 -0.18653098 -0.29748756 0.5521194 -0.15048856 -0.5570047 0.49298188 -0.09315345 -1.3468531 1.0559239 0.054806586 -0.15127788 -0.2698712 0.49904782 -0.8672042 0.017435243 0.55945724 -0.38324845 -0.1812178 -0.8750272 0.06637353 0.19004473 1.3135121 0.26049143 -0.50301284 -0.2206459 0.3394088 0.21545249 0.7578298 -0.01985682 0.8417741 -0.62734854 -0.071917385 0.16118523 -0.12570281 -0.8265168 -0.08969864 0.29299784 0.38908988 -0.28211987 -0.9345978 -0.35728025 0.14310165 0.2591179 0.12457328 -0.2753949 0.60205585 0.3073525 0.6623563 -0.269697 0.032865483 0.4430596 -0.79844356 0.6563463 -0.2140232 -0.21011235 0.77516216 -0.28745916 -0.94935626 -0.010174199 -0.6944226 -0.091716 0.07155271 0.2287111 1.2677718
yes -1.2894311 -0.7603876 -0.42548066 1.4271778 2.7589912 -2.0321152 -0.04105185 0.61860967 -3.0563922 0.1847987 0.5916407 2.2966042 3.389396 0.2503154 1.1988624 -3.0847929 2.716433 -1.4153941 -5.2838297 0.61297274 -0.9407406 1.3794782 -1.9341933 0.8680835 -1.4301463 0.8190961 0.13284566 0.19061396 1.6325924 1.6967126 0.42943937 -1.8737553 -3.0014567 -1.7632675 1.0028535 4.9828115 -0.5675833 -0.87463886 1.8077052 -0.39315176 -1.6583507 1.655224 -0.3200819 -4.179815 3.282142 0.29190162 -0.5896653 -0.96184397 1.6517493 -2.7422256 0.10133956 1.925292 -1.1422417 -0.6288297 -2.8247955 0.2126136 0.5767705 4.0928383 0.81105846 -1.4845235 -0.7659689 0.99154556 0.6264726 2.2602515 0.083992146 2.6188407 -2.0998292 -0.3532708 0.37383497 -0.4419812 -2.5876718 -0.35314792 0.8134553 1.1656593 -0.8362566 -3.1232061 -1.2156596 0.43841338 0.7632835 0.39998087 -0.7754797 2.0594106 1.0614308 2.1312778 -0.8465762 0.087179 1.4623944 -2.6164627 2.0240679 -0.49833566 -0.6167643 2.630825 -0.9708523 -3.0797172 -0.040496282 -2.303373 -0.25204587 0.09570449 0.78806764 4.0217147
nearly -0.37549478 -0.22973862 -0.14146246 0.4109401 0.9130059 -0.6319673 -0.0246342 0.16000216 -0.9551743 0.11926478 0.16541757 0.7075028 1.0764302 0.086538725 0.4014393 -0.9730199 0.84751946 -0.4179416 -1.6818109 0.23079772 -0.27059844 0.4299411 -0.56704354 0.29873982 -0.45221236 0.27514365 0.0467001 0.03623323 0.5513366 0.557979 0.105616026 -0.5801899 -0.9135378 -0.56794363 0.26541853 1.5159616 -0.15722346 -0.29398766 0.5436901 -0.13308375 -0.5459963 0.47349623 -0.098031946 -1.2983602 1.057173 0.02672789 -0.15730661 -0.3300548 0.55113584 -0.8149976 0.030431177 0.62760293 -0.34626642 -0.16082536 -0.89328253 0.07804459 0.18734324 1.2823509 0.18874542 -0.5011792 -0.24292856 0.3220585 0.2282692 0.7633229 -0.026542991 0.87304413 -0.61383563 -0.14353763 0.17350724 -0.12023612 -0.8105216 -0.13295041 0.3142216 0.40281123 -0.25322062 -0.99197584 -0.35365698 0.17615993 0.22541709 0.11622158 -0.2123441 0.66129076 0.3732457 0.6765626 -0.27979833 0.038046602 0.5010193 -0.8589906 0.6291468 -0.21518561 -0.2151352 0.85250205 -0.28570896 -0.95264184 -0.0340582 -0.67314714 -0.05330439 0.031536818 0.27881625 1.2210145
every -1.3241441 -0.8025417 -0.40435585 1.5249038 2.8846242 -2.1301339 -0.05808772 0.666404 -3.2519617 0.22597739 0.62285066 2.3865676 3.6335802 0.25523385 1.2913502 -3.2859378 2.865692 -1.5250108 -5.5796127 0.6234989 -1.001436 1.4719068 -2.0422578 0.89930445 -1.5640148 0.90116894 0.092646934 0.26639894 1.7861534 1.8482571 0.41372144 -1.9688298 -3.196277 -1.7785561 1.0701944 5.177032 -0.64292496 -0.9616123 1.9422601 -0.43927658 -1.7763034 1.7812587 -0.40608448 -4.4392886 3.4311597 0.21969809 -0.6706278 -0.9493987 1.7478049 -2.8488004 0.0581958 2.010273 -1.2587652 -0.6676331 -3.0129898 0.25400198 0.6080583 4.347768 0.82575643 -1.6118157 -0.84253657 1.0249286 0.6508724 2.428176 0.019549135 2.7867346 -2.2003093 -0.4404417 0.4112016 -0.4576796 -2.7163045 -0.33609772 0.896825 1.2018428 -0.91106254 -3.3478081 -1.3348731 0.5214474 0.8149377 0.39485276 -0.82443523 2.1753442 1.101988 2.302835 -0.9250626 0.11379694 1.5242412 -2.7436564 2.2176588 -0.5983598 -0.6746631 2.8251996 -1.0187122 -3.2145395 0.0033977476 -2.3524714 -0.24790561 0.10314548 0.89851904 4.198063
time -1.2855736 -0.8403976 -0.39285785 1.4831761 2.838968 -2.0589666 0.00064600917 0.6271155 -3.1458187 0.2709695 0.54526687 2.341414 3.4766667 0.2911623 1.3206295 -3.1585531 2.8121686 -1.418056 -5.415002 0.63264155 -0.9625823 1.4817715 -1.9325668 0.81393987 -1.5202651 0.88946676 0.12993683 0.21814348 1.7228743 1.8056288 0.330434 -1.8778656 -3.1147747 -1.7150593 0.97223985 4.985575 -0.5891712 -0.8797267 1.8803241 -0.382876 -1.7649335 1.6754032 -0.3779027 -4.348625 3.333973 0.18314521 -0.5876237 -0.94754297 1.6877358 -2.7647398 0.07393131 1.934653 -1.186128 -0.6849006 -2.9310088 0.3448189 0.6237963 4.204577 0.71723384 -1.5776665 -0.7837419 0.9945002 0.656182 2.3735743 0.04531361 2.7367382 -2.0426214 -0.37606224 0.39903435 -0.4235303 -2.6025472 -0.281087 0.93984586 1.207953 -0.8129666 -3.2173836 -1.2729582 0.51630336 0.6914724 0.3294345 -0.81930304 2.0587559 1.0856247 2.1802497 -0.88552713 0.08201819 1.4959131 -2.6138556 2.1131878 -0.59650415 -0.588835 2.7129955 -0.9342751 -3.030698 -0.014592088 -2.2287688 -0.2668844 0.082942314 0.81983507 4.01082
fly -1.4380835 -0.8363203 -0.41817033 1.57898 3.0896358 -2.3090482 -0.0765988 0.6498191 -3.4692824 0.24127637 0.62680215 2.5602458 3.9146247 0.28569427 1.3378154 -3.5656643 2.9908183 -1.5958188 -5.976966 0.68231726 -1.0916964 1.5354422 -2.2057128 0.94367284 -1.615781 0.8536189 0.11151652 0.284149 1.8843724 1.9085131 0.436835 -2.1028893 -3.3763688 -1.9751203 1.1063607 5.611348 -0.6117766 -1.0126467 2.073326 -0.49525374 -1.8876766 1.8582686 -0.33244145 -4.699837 3.629414 0.36752722 -0.7009371 -1.042164 1.8890939 -3.0770156 0.08551644 2.1579118 -1.2514837 -0.70792454 -3.1744525 0.22099578 0.64409983 4.605351 0.8834664 -1.637132 -0.9255678 1.0865182 0.6584074 2.5385106 0.022652784 2.8943944 -2.364371 -0.4548216 0.47145173 -0.5133426 -2.9087584 -0.41447002 1.0130966 1.2711568 -0.9627787 -3.5043342 -1.3834186 0.44670582 0.85356855 0.45533368 -0.85131586 2.260973 1.2334673 2.435489 -0.9848355 0.10643806 1.6364108 -2.9472017 2.3013794 -0.62900716 -0.7186766 2.97132 -1.0602845 -3.4467225 -0.002072678 -2.5405462 -0.2593772 0.11958565 0.96276534 4.4992256
vx -0.3316206 -0.18068247 -0.051641006 0.34048438 0.6317867 -0.46109238 0.020551097 0.16186789 -0.687354 0.061048858 0.17579138 0.48652092 0.7860565 0.026509175 0.2974847 -0.7555236 0.65999717 -0.3166186 -1.2086061 0.13381243 -0.19944099 0.37670133 -0.4681745 0.15788125 -0.3610007 0.17009701 0.036809947 0.055180706 0.3909314 0.43805686 0.047098707 -0.46669266 -0.6876381 -0.40356076 0.25243595 1.1687038 -0.12133325 -0.1627144 0.4455008 -0.110080115 -0.42460942 0.40065557 -0.04598938 -0.9918644 0.7754165 0.02739795 -0.089984365 -0.19012663 0.391297 -0.63356704 0.04416903 0.46423325 -0.32051298 -0.13518599 -0.6279249 0.08518652 0.15609479 0.9743287 0.20537977 -0.38159236 -0.15227632 0.2661898 0.12197808 0.5741595 -0.032299936 0.5988179 -0.51465756 -0.042137377 0.09621551 -0.09328842 -0.6158881 -0.09450731 0.21781501 0.27791125 -0.1562812 -0.7779903 -0.31846943 0.12537582 0.13341866 0.10049635 -0.21460478 0.4474637 0.25533226 0.48263782 -0.19697934 -0.01886763 0.36496332 -0.6368877 0.48188767 -0.11399405 -0.14130883 0.6349552 -0.2511094 -0.69900286 -0.010769354 -0.4845239 -0.08105259 0.061314084 0.23241341 0.93565834
wont -1.0762907 -0.64993906 -0.36236832 1.2020981 2.3796165 -1.7389473 -0.024589058 0.48916167 -2.6369934 0.16240907 0.46375784 1.9511632 2.9833543 0.21437523 1.0713568 -2.669554 2.3568602 -1.2262877 -4.5885806 0.46968064 -0.8451443 1.2256306 -1.652963 0.7155995 -1.2683468 0.74766207 0.10067519 0.18016495 1.4147722 1.4994093 0.38896027 -1.5786017 -2.6185632 -1.4799697 0.81291026 4.2535324 -0.48301575 -0.7998754 1.5696373 -0.32986477 -1.429549 1.4267076 -0.32147768 -3.666559 2.8359044 0.25004286 -0.53677326 -0.78103703 1.4433055 -2.3547735 0.07073382 1.6567394 -0.95145655 -0.54253465 -2.4555554 0.1950282 0.56315416 3.5797782 0.6446697 -1.2897936 -0.6705555 0.8671374 0.5176925 1.9927197 0.05807167 2.3289092 -1.7870743 -0.30744532 0.32346755 -0.3532167 -2.2190976 -0.29767576 0.7562597 0.98656213 -0.6970187 -2.7502818 -1.0771426 0.36383483 0.6154274 0.36727232 -0.6743822 1.7450689 0.9752206 1.8131518 -0.7171047 0.09223631 1.2727498 -2.275358 1.7643784 -0.4514828 -0.55652595 2.3162205 -0.8265863 -2.6284447 0.00882529 -1.985745 -0.2148333 0.0582086 0.7204346 3.5055406
go -1.2703414 -0.7383793 -0.37679037 1.4764881 2.8869026 -2.0830576 -0.06022036 0.618235 -3.1311927 0.2051634 0.5460664 2.349494 3.5205173 0.22661494 1.2067475 -3.2470052 2.8072393 -1.4541506 -5.4337378 0.6253975 -0.988503 1.411305 -1.9921525 0.8451543 -1.5291221 0.8271042 0.055936757 0.2454945 1.7715188 1.7542042 0.39987057 -1.8876623 -3.0954487 -1.7931012 1.0584393 5.111273 -0.57544833 -0.8806289 1.9118655 -0.43755192 -1.7799177 1.7251616 -0.38660732 -4.310322 3.3404853 0.26394933 -0.5891714 -0.9273589 1.7559766 -2.8351643 0.09839403 1.9305134 -1.1061221 -0.64276755 -2.9299872 0.29048282 0.5721465 4.2361174 0.82535386 -1.5339155 -0.85071653 1.0467227 0.6628268 2.383616 0.047505837 2.7142475 -2.1151311 -0.39366847 0.3894569 -0.41783556 -2.6594865 -0.37380016 0.8919546 1.1707982 -0.8671412 -3.2132378 -1.2162464 0.452264 0.7837102 0.4184307 -0.86663437 2.1081688 1.076956 2.2468967 -0.9067894 0.07692256 1.538872 -2.68013 2.1173885 -0.56046 -0.6319487 2.7441611 -0.96790177 -3.1124299 -0.023036385 -2.3746116 -0.27272394 0.1308039 0.8541139 4.1469626
away -1.0388895 -0.63936394 -0.33316776 1.150303 2.2833822 -1.6587228 -0.01032553 0.5208996 -2.4970489 0.17148466 0.46373633 1.8444434 2.7815254 0.201106 0.99773824 -2.5490963 2.2024674 -1.1320215 -4.3191957 0.51064134 -0.74754363 1.174829 -1.5412228 0.7067371 -1.2064477 0.70061344 0.084265396 0.1450707 1.3768148 1.3878961 0.30161574 -1.4624071 -2.4582107 -1.4311717 0.8031415 4.031303 -0.48303455 -0.73416156 1.4749057 -0.29662374 -1.3513887 1.365045 -0.29317003 -3.4180505 2.6762347 0.22294508 -0.4594052 -0.7740982 1.3425732 -2.222994 0.10112615 1.5529057 -0.9361455 -0.5561163 -2.3147833 0.19159369 0.52294886 3.386574 0.61527437 -1.2103845 -0.6452588 0.78860795 0.4795004 1.8403101 0.026270945 2.143227 -1.693621 -0.28431022 0.3301641 -0.31692535 -2.0971503 -0.2822878 0.7325704 0.9567897 -0.6460359 -2.5736828 -1.0232239 0.3639988 0.58310974 0.33937687 -0.6269616 1.6572956 0.8980706 1.7788677 -0.6711386 0.053218845 1.2005712 -2.0960846 1.6852349 -0.4604437 -0.46877372 2.1538565 -0.76227176 -2.4398189 -0.0041125966 -1.853088 -0.20724171 0.11176839 0.6611629 3.2724144
missed -0.81909305 -0.5241093 -0.21680817 0.96805143 1.8859514 -1.3879197 0.008505284 0.43475378 -2.0607169 0.15695228 0.3758355 1.5564177 2.321958 0.151776 0.84389395 -2.0722375 1.8665389 -0.9311686 -3.6237068 0.38814017 -0.6300415 0.9933111 -1.2439768 0.5598349 -1.0073977 0.5883107 0.07367184 0.18092078 1.1140043 1.1945988 0.27404678 -1.2513107 -2.0295193 -1.1063989 0.68633604 3.3324702 -0.38403097 -0.6171932 1.219143 -0.27510315 -1.1759481 1.0904896 -0.30032167 -2.8191042 2.2174273 0.14281863 -0.37105379 -0.60814506 1.1013364 -1.8727962 0.015501852 1.2818396 -0.80727965 -0.45417827 -1.9695696 0.20751935 0.38863054 2.8133976 0.51666754 -1.0322131 -0.5494885 0.6309811 0.46093345 1.6061913 0.0011455378 1.8167441 -1.4029422 -0.24131393 0.2607914 -0.2623624 -1.7364602 -0.2213399 0.57271343 0.7546634 -0.56729853 -2.138687 -0.84421945 0.3125234 0.4875343 0.27310908 -0.5685593 1.4026717 0.6900404 1.4886944 -0.630414 0.06452644 0.98020273 -1.7050198 1.4144553 -0.39323974 -0.39988893 1.8289267 -0.6036461 -2.0049307 -0.0056111226 -1.5319229 -0.20203042 0.038782936 0.59388435 2.6711557
prime -0.24432261 -0.11100301 -0.100561 0.2158316 0.5481861 -0.35558963 0.030394008 0.06723635 -0.537156 0.038849596 0.09722841 0.4013107 0.5700094 0.081873216 0.26915714 -0.5045022 0.43983307 -0.23100065 -0.90455604 0.16163953 -0.2101778 0.28484094 -0.38885838 0.09841714 -0.23554312 0.11631193 0.027234774 0.048171364 0.28274065 0.31236455 0.08174529 -0.28046054 -0.5570515 -0.34481704 0.14939956 0.8342464 -0.088303745 -0.10907857 0.38079703 -0.04021656 -0.2632627 0.30505973 -0.030122088 -0.7688151 0.54794633 0.021765439 -0.073488474 -0.20783652 0.24158877 -0.4892629 0.00877721 0.2880702 -0.1858842 -0.06955847 -0.47829613 0.09074311 0.11975147 0.70884496 0.11759117 -0.31032813 -0.1770839 0.2213902 0.14240907 0.46688768 -0.02399192 0.47205922 -0.4160031 -0.038045816 0.08650741 -0.02457076 -0.4828125 -0.053384583 0.14016174 0.257552 -0.18923317 -0.5509826 -0.27831602 0.12285561 0.12371732 0.03136172 -0.109232984 0.38745913 0.1724617 0.33289343 -0.14235029 0.00017510146 0.30276105 -0.4761035 0.38637054 -0.14137797 -0.0682153 0.4941453 -0.12949528 -0.4871207 0.020653063 -0.37612134 -0.02658349 0.07132519 0.14451516 0.69337285
opportunity -0.36822265 -0.20896578 -0.1429362 0.40457353 0.79248613 -0.6155165 -0.017566403 0.14245999 -0.8485617 0.09565766 0.14895473 0.6950578 1.0223511 0.052987676 0.37825212 -0.89803714 0.7946018 -0.45596388 -1.5362241 0.15136828 -0.31557572 0.36309522 -0.5653426 0.24211703 -0.42367542 0.20172241 0.0071477024 0.046949062 0.5046416 0.5254763 0.08947055 -0.5070436 -0.91004026 -0.45348972 0.27239084 1.4285368 -0.1207167 -0.29052812 0.53187686 -0.09025462 -0.45565826 0.447179 -0.08339141 -1.2051814 0.9008732 0.026220609 -0.20774381 -0.2516131 0.48261335 -0.8388518 0.004466512 0.5788758 -0.31843412 -0.16232911 -0.7883182 0.10586917 0.21249162 1.1604747 0.20165373 -0.43987057 -0.23311944 0.33706686 0.21559918 0.7033367 0.05233607 0.7981736 -0.5494283 -0.08154679 0.074731134 -0.15529497 -0.77780116 -0.11682317 0.2279009 0.3683915 -0.251597 -0.906936 -0.3430592 0.111923546 0.16867861 0.13545401 -0.23728539 0.6049854 0.35854656 0.58681923 -0.2838999 0.0021189172 0.41073906 -0.71745616 0.6144082 -0.20589763 -0.19794686 0.727447 -0.23808019 -0.90750146 -0.011360109 -0.70247966 -0.06777814 0.013549449 0.25799826 1.1912193
men -0.2139857 -0.15120554 -0.0048200698 0.24753994 0.49492562 -0.37303746 0.021498982 0.058083784 -0.43406376 0.08268491 0.120556906 0.40276513 0.5862308 0.06460901 0.1389907 -0.47837558 0.47358352 -0.27423176 -0.8532828 0.04727639 -0.17803484 0.2502356 -0.33783695 0.11138169 -0.23334862 0.16680333 0.049503252 0.021310156 0.311642 0.31463498 0.017625917 -0.28062943 -0.5326598 -0.26072344 0.21138896 0.79696137 -0.03830783 -0.08862196 0.25466883 -0.08805524 -0.3295998 0.32025057 -0.014590928 -0.64736176 0.48859975 0.018956847 -0.07309969 -0.1182589 0.28276864 -0.41346994 0.0058746166 0.25461566 -0.15075913 -0.07465598 -0.49520284 0.0038111534 0.1323248 0.63375336 0.074630514 -0.21250995 -0.08728216 0.113439076 0.05100205 0.3851095 -0.033353586 0.42154682 -0.28181085 -0.061731525 0.076764435 -0.08407777 -0.3595499 -0.05841085 0.1060992 0.13708591 -0.15800734 -0.45308518 -0.2507319 0.07934765 0.16809879 0.022496914 -0.15305167 0.36511198 0.13125047 0.29741678 -0.16816698 0.036917057 0.2515763 -0.3833078 0.30265677 -0.06357539 -0.05327683 0.41325918 -0.15150006 -0.5285151 -0.05204265 -0.41409826 -0.00066951686 0.0007239973 0.13632858 0.6766109
without -1.2177936 -0.77117497 -0.40617818 1.3657554 2.6834862 -1.9722797 -0.035167437 0.5905211 -3.0210922 0.257685 0.5164876 2.204384 3.3330882 0.24164723 1.1594871 -2.9955685 2.6512458 -1.3397347 -5.196175 0.5512787 -0.9556767 1.40731 -1.8460771 0.8072233 -1.4115226 0.7763124 0.1392857 0.17890899 1.6332712 1.6589093 0.4163684 -1.8182086 -2.9443283 -1.6935453 0.91094047 4.7998424 -0.52637535 -0.83305967 1.776069 -0.3977332 -1.6306317 1.5809283 -0.3141159 -4.09669 3.1997395 0.18595885 -0.6023812 -0.90262604 1.6392454 -2.6199055 0.051187117 1.8310096 -1.1417857 -0.6380853 -2.7451067 0.26244858 0.61165947 3.9955888 0.7308152 -1.476014 -0.81354773 0.9387678 0.60102147 2.2184765 0.024877032 2.586183 -2.0309982 -0.3564545 0.42755103 -0.38266802 -2.5064337 -0.28847662 0.8333728 1.0747646 -0.7848168 -3.0366826 -1.2177866 0.47205088 0.70053375 0.3761077 -0.7764567 1.9635667 1.0863496 2.0580583 -0.8488913 0.06584391 1.4011651 -2.4888315 1.9932861 -0.5204896 -0.60442287 2.5637538 -0.8870509 -2.9434915 -0.03568965 -2.2009404 -0.28545356 0.10367614 0.8272872 3.8638067
hats -0.18496206 -0.12099088 -0.04322014 0.27299917 0.4850088 -0.38423982 -0.03169026 0.09882758 -0.5551694 0.0059269867 0.063478686 0.41543558 0.66845775 0.047295135 0.24622571 -0.59123385 0.53178096 -0.27065194 -0.94769156 0.14080602 -0.163046 0.21338485 -0.32381162 0.15489894 -0.32399157 0.17686956 -0.015227557 0.0034866005 0.2905104 0.33370307 0.10321944 -0.29407805 -0.60814536 -0.36886916 0.22647488 0.9591557 -0.12832232 -0.15664208 0.3671829 -0.029670343 -0.33220077 0.33049214 -0.10875087 -0.733789 0.5786553 0.091711365 -0.120560765 -0.22298886 0.27017188 -0.52344507 0.016621368 0.38830015 -0.19821201 -0.12378825 -0.4904048 0.055673003 0.16125156 0.7220023 0.151806 -0.2549896 -0.18886386 0.15609875 0.07108615 0.47287598 -0.019376867 0.4548808 -0.3844421 -0.045384083 0.0713728 -0.08037798 -0.456448 -0.027119007 0.12385766 0.25656918 -0.15253878 -0.62534535 -0.24950278 0.060838565 0.14680399 0.10964612 -0.14167914 0.41473377 0.15458344 0.41877738 -0.107485816 0.05714921 0.21896821 -0.4388306 0.3847862 -0.067721985 -0.14946134 0.48465273 -0.13583776 -0.59611946 0.025914157 -0.37688756 -0.014302354 0.020210715 0.12274258 0.6943384
there -1.1943494 -0.70547014 -0.377495 1.4200975 2.7136056 -1.9869528 -0.020846223 0.5083981 -2.9604936 0.20918468 0.5240821 2.2102902 3.419565 0.24303399 1.1391755 -3.0833926 2.6470807 -1.352311 -5.2190967 0.58733815 -0.93155235 1.3492788 -1.907745 0.7814829 -1.4465948 0.73812217 0.06519972 0.20752694 1.7036169 1.6640075 0.39533418 -1.7935723 -2.9890673 -1.6716869 0.9753475 4.846015 -0.5313663 -0.8531095 1.7630556 -0.3578861 -1.7050117 1.7005605 -0.3465744 -4.0795813 3.2337196 0.26848897 -0.5661584 -0.9456593 1.5836843 -2.7200122 0.07246896 1.8473105 -1.0818148 -0.58838195 -2.72369 0.2790102 0.57550144 4.035419 0.7904766 -1.501055 -0.75213194 0.94855446 0.63621336 2.2009923 -0.0012491335 2.5662093 -2.0362709 -0.355125 0.39946994 -0.44784942 -2.4782927 -0.3316292 0.8308322 1.1286511 -0.86703676 -3.1140568 -1.2029655 0.49313775 0.70256954 0.42238784 -0.89324486 1.9503045 1.0140896 2.1577332 -0.8000608 0.10924875 1.4349103 -2.5205846 1.9773465 -0.5487231 -0.61091775 2.6136453 -0.9488975 -2.976983 -0.06544422 -2.2481587 -0.20953447 0.076219015 0.82229304 3.9518557
well -1.3865262 -0.80554247 -0.4384016 1.599097 3.074885 -2.2593532 0.007931386 0.6294219 -3.3761952 0.2691368 0.61315364 2.565176 3.779632 0.25738546 1.3341031 -3.4219663 2.9796424 -1.5306853 -5.854957 0.63539374 -1.0918145 1.550482 -2.0942264 0.9801251 -1.604417 0.9059898 0.13085341 0.22582373 1.8180195 1.9066734 0.429232 -2.0516703 -3.307094 -1.9435545 1.0580386 5.427407 -0.61628556 -1.0055048 2.0379484 -0.4010487 -1.880191 1.860541 -0.34929362 -4.654458 3.5858295 0.29416448 -0.661022 -1.0107427 1.8379551 -3.0352027 0.086084925 2.0805464 -1.2402047 -0.6823528 -3.1170056 0.28927344 0.6669007 4.5130105 0.8085904 -1.6820221 -0.8896626 1.102236 0.65660256 2.500205 0.061638977 2.9346356 -2.3008907 -0.3964353 0.45717987 -0.47714365 -2.8149815 -0.38866702 0.9503658 1.2573565 -0.948128 -3.5118034 -1.3738681 0.46950316 0.76759845 0.42712346 -0.8998125 2.2167861 1.1829149 2.368656 -0.9327191 0.09834014 1.6722404 -2.8701215 2.2833936 -0.58566743 -0.7152089 2.8823454 -1.0292794 -3.3529572 -0.023376888 -2.5092425 -0.25464028 0.14999007 0.9160526 4.44004
now -1.2268231 -0.76476175 -0.35688707 1.4817395 2.7751741 -2.0139244 0.011271669 0.5655416 -3.0846376 0.22080564 0.5416746 2.2684226 3.4285526 0.23876238 1.2290775 -3.1285796 2.722147 -1.4222956 -5.3265038 0.61969054 -0.9433067 1.4158211 -1.8754066 0.8433553 -1.4839119 0.823493 0.07538754 0.25071132 1.6806828 1.7464834 0.38993013 -1.8501097 -3.0633526 -1.7065068 0.9700468 4.9109545 -0.5935414 -0.87109774 1.8600739 -0.40813777 -1.6853532 1.6318576 -0.37279865 -4.2287035 3.2932887 0.24080357 -0.5942267 -0.97542614 1.6439211 -2.7471142 0.084943205 1.875482 -1.0992362 -0.6392664 -2.835342 0.29535323 0.59385365 4.1307087 0.76240444 -1.533498 -0.77075595 0.95497084 0.6656756 2.2982943 0.04544975 2.697369 -2.0337899 -0.35826153 0.3816636 -0.43508646 -2.5654533 -0.29272622 0.86248183 1.1524928 -0.8418972 -3.1229 -1.2142392 0.53315425 0.7141756 0.3887595 -0.8469691 2.0331297 1.0692809 2.1777413 -0.8924918 0.0876047 1.4308116 -2.5870242 2.053137 -0.5431113 -0.58313835 2.6889722 -0.9615782 -2.996366 0.005700966 -2.2311146 -0.26402536 0.10779434 0.84577185 4.000708
do -1.2564228 -0.6166158 -0.39921865 1.3127434 2.5941887 -1.9425879 -0.12381204 0.5726898 -2.927449 0.11465397 0.54626185 2.2141109 3.3790975 0.15909126 1.012399 -2.9986036 2.469927 -1.4291472 -5.1103106 0.5160755 -0.9193087 1.259111 -1.9615961 0.8429612 -1.3134098 0.69139093 0.050683387 0.19753797 1.6009996 1.632211 0.5557169 -1.8222612 -2.8294609 -1.7580374 1.0076138 4.881818 -0.4225925 -0.9052821 1.7932055 -0.339458 -1.575384 1.7143316 -0.24956429 -3.949767 3.046572 0.43741092 -0.6169802 -0.9413522 1.5623947 -2.6886253 0.03955489 1.8524839 -0.947061 -0.53746706 -2.660282 0.10985553 0.4677707 3.8236394 0.83225876 -1.4158819 -0.8117266 0.98095757 0.5098857 2.1583042 0.09670107 2.4553444 -2.0122516 -0.3760324 0.33492908 -0.48716244 -2.4934983 -0.4058768 0.73261684 1.0800581 -0.8312672 -2.9199874 -1.1132003 0.26153108 0.8249112 0.5193219 -0.7649834 1.9306126 1.1326524 2.0522695 -0.791945 0.16785417 1.4472109 -2.6324823 1.9698662 -0.45425558 -0.6725537 2.4991999 -0.88845164 -3.0792086 -0.04201195 -2.2602417 -0.23553878 0.10478698 0.81633574 3.9776464
d -0.62791413 -0.34528428 -0.20249969 0.7367559 1.3395637 -1.016656 -0.019144237 0.32608622 -1.4849403 0.12791413 0.27982292 1.1004589 1.6932067 0.10221101 0.5839828 -1.532397 1.3489579 -0.7222168 -2.572347 0.2973045 -0.49790898 0.7069037 -0.96630794 0.37142166 -0.68478584 0.36610478 0.056146134 0.06424939 0.7902487 0.82509863 0.15798381 -0.9332541 -1.439693 -0.84796566 0.48355594 2.4183967 -0.2546583 -0.46779764 0.9340865 -0.15497127 -0.8407458 0.77614135 -0.14545098 -2.0338798 1.5920777 0.13380831 -0.2627454 -0.465985 0.7960123 -1.359375 0.073197976 0.9128315 -0.55817467 -0.31319287 -1.3766178 0.16108285 0.30633172 1.9893765 0.35602376 -0.73431194 -0.4137185 0.48228693 0.31190532 1.0885464 0.046830744 1.2417622 -1.0099488 -0.15498231 0.20685449 -0.20172967 -1.2175889 -0.15751734 0.44678926 0.5483107 -0.39630178 -1.5555509 -0.59906685 0.2419765 0.35649106 0.21371731 -0.35327294 1.005403 0.48051915 1.0100847 -0.42106616 0.0813125 0.7141256 -1.2193681 1.0187392 -0.25437436 -0.29316038 1.301271 -0.47975048 -1.4381752 -0.012853058 -1.0816253 -0.1505749 0.027757948 0.43228057 1.9222227
was -1.0235394 -0.7123372 -0.28952813 1.2683766 2.3283098 -1.68524 -0.023598634 0.55148035 -2.5990806 0.21010423 0.45576 1.9389596 2.947312 0.20963958 1.1195368 -2.5665824 2.392078 -1.2240891 -4.512841 0.5562058 -0.8004699 1.1817663 -1.5494404 0.6351444 -1.2189045 0.7159593 0.10318313 0.17140058 1.4414843 1.531138 0.30028293 -1.509634 -2.6685493 -1.4366136 0.8601117 4.1564293 -0.5175093 -0.75036454 1.5863409 -0.33590585 -1.4797138 1.4305867 -0.37700558 -3.6319482 2.7791436 0.19413076 -0.48684376 -0.80947334 1.4215679 -2.3736444 0.0577206 1.6413786 -1.0022963 -0.5557624 -2.5250049 0.28332424 0.57100487 3.5613267 0.7192269 -1.2851037 -0.65171456 0.8126894 0.56734926 2.0266857 0.080831185 2.3298051 -1.7282854 -0.33173537 0.33456382 -0.32156736 -2.2545953 -0.21232581 0.74234545 1.0157945 -0.6752047 -2.6966624 -1.0595996 0.49913678 0.6681494 0.30886936 -0.6842536 1.7396511 0.90722775 1.8502196 -0.766438 0.07300686 1.282088 -2.1783395 1.7377295 -0.47379166 -0.5080678 2.2829268 -0.7692762 -2.5351322 0.001991634 -1.9471127 -0.2466678 0.12777664 0.675315 3.3523195
amazing -1.211102 -0.7388537 -0.37834707 1.3658644 2.6357477 -2.0049326 -0.026072627 0.5763947 -3.011787 0.22450426 0.5427122 2.2318282 3.2649615 0.19982643 1.1283212 -3.0564644 2.686264 -1.2981524 -5.0816536 0.57948285 -0.9343025 1.360665 -1.8984114 0.8321709 -1.3245538 0.79849195 0.109095275 0.25621834 1.6168205 1.6004623 0.32894766 -1.7695541 -2.8868241 -1.667845 0.9552656 4.7778935 -0.5253962 -0.8927476 1.7615962 -0.41177583 -1.6030061 1.6276504 -0.27032495 -4.0745344 3.2118058 0.21472356 -0.52888924 -0.8794379 1.6342931 -2.6048107 0.11042177 1.8107195 -1.182794 -0.6795979 -2.6848934 0.23735107 0.5629415 3.9794955 0.6921012 -1.4065497 -0.8460975 0.8939706 0.61714816 2.22537 0.065091506 2.5726464 -2.0618126 -0.33621857 0.42059007 -0.42248592 -2.4667697 -0.31008992 0.8128064 1.0571365 -0.86415946 -3.1396587 -1.2131195 0.42453325 0.65999645 0.41457418 -0.7492361 1.9436997 1.0301557 2.0621657 -0.8307807 0.07317569 1.4276961 -2.4850447 2.0458128 -0.48720974 -0.6343688 2.5416718 -0.9276401 -2.9155893 -0.02524749 -2.2342534 -0.27330604 0.08323775 0.7931909 3.9350736
arrived -0.67275256 -0.48347002 -0.21150166 0.7920212 1.5268906 -1.1239934 -0.017199973 0.36953813 -1.6804903 0.14827593 0.32001945 1.2454002 1.8823539 0.11640341 0.74456805 -1.7584944 1.5356553 -0.8136576 -3.006583 0.3171796 -0.5582113 0.8092066 -1.0570843 0.45208988 -0.8416111 0.4395715 0.09333041 0.10611657 0.97824526 1.0007441 0.18344437 -0.99606144 -1.7136168 -0.95889866 0.56044745 2.7863517 -0.30252546 -0.45493096 1.0403668 -0.23648815 -0.9623218 0.93936586 -0.1812676 -2.3528628 1.844941 0.12149441 -0.35683894 -0.5537442 0.9694242 -1.5481788 0.06324861 1.0935186 -0.6403937 -0.40106457 -1.6373229 0.14137557 0.32696712 2.3436878 0.40364754 -0.8371812 -0.43039602 0.52481776 0.3474078 1.2711338 0.06537614 1.5306368 -1.1096063 -0.17740172 0.2090717 -0.24619475 -1.4790609 -0.13113007 0.52796453 0.67397326 -0.4312187 -1.7479317 -0.69061786 0.340836 0.43414858 0.20198937 -0.48402697 1.1067923 0.6129269 1.259431 -0.5316401 0.007951975 0.78403246 -1.4208231 1.1121968 -0.2863988 -0.29224944 1.4891351 -0.5619479 -1.6695545 -0.0018796183 -1.2426561 -0.16902234 0.060642134 0.49596858 2.2458377
an -1.4103826 -0.9218109 -0.43437627 1.7045482 3.2000256 -2.2942793 -0.00022203209 0.6601209 -3.535589 0.30114636 0.7128223 2.6540494 3.8704877 0.29193488 1.4256437 -3.5323372 3.1349173 -1.5831127 -5.9903607 0.65351844 -1.1306139 1.5610178 -2.1465662 0.9457297 -1.7037016 0.96901315 0.15880917 0.3169585 1.8983538 1.9190208 0.40924686 -2.1169348 -3.4753687 -1.9659327 1.1170598 5.626428 -0.678252 -0.9600255 2.0759268 -0.46893016 -1.9437244 1.9301822 -0.38994297 -4.8150477 3.7346642 0.2288256 -0.7278783 -1.0317692 1.887381 -3.118024 0.06929455 2.1390953 -1.2853305 -0.7066165 -3.2479045 0.33152512 0.6927173 4.7136016 0.8510215 -1.7256311 -0.93026316 1.1457587 0.7141079 2.619628 0.0057971254 3.0208135 -2.35198 -0.3820027 0.4769398 -0.5139888 -2.9545288 -0.3508637 1.0009784 1.3119655 -1.0124162 -3.6419353 -1.4686679 0.5277544 0.8376311 0.47106028 -0.96125543 2.341034 1.1694893 2.5030167 -1.0400866 0.11924091 1.7163986 -2.9749448 2.3714175 -0.5495595 -0.6825587 2.97891 -1.040571 -3.4509008 -0.006237153 -2.5257657 -0.32608137 0.13665111 0.96228963 4.5999613
hour -1.1762257 -0.81359184 -0.33078077 1.4775459 2.8138592 -2.0687666 0.0010320413 0.59000427 -3.143363 0.23911807 0.58593035 2.338291 3.4800322 0.23264106 1.2651862 -3.1998441 2.7943935 -1.4106709 -5.330929 0.6408326 -0.9894306 1.487772 -1.8400884 0.832972 -1.476211 0.8946103 0.0662946 0.19083486 1.6958869 1.7469919 0.33335093 -1.8056383 -3.1202059 -1.7340212 1.0047123 4.929877 -0.59401417 -0.8822972 1.8598943 -0.44295532 -1.7418975 1.6105711 -0.37814695 -4.3170695 3.3618443 0.13926207 -0.57833445 -0.9398293 1.6384877 -2.7358553 0.07356769 1.9316924 -1.2255329 -0.6872188 -2.847321 0.29224676 0.7205018 4.263615 0.68189937 -1.5287741 -0.88107675 0.93214905 0.6414976 2.280036 0.037702054 2.798485 -2.0131302 -0.35669765 0.33862856 -0.36377907 -2.5405836 -0.2431547 0.9714681 1.1934987 -0.89882714 -3.2804883 -1.2732761 0.5190323 0.7150135 0.30843714 -0.8764712 2.1028056 1.0584466 2.236016 -0.89550775 0.0836152 1.4425018 -2.5861783 2.0711873 -0.57011396 -0.53734386 2.708443 -0.9289967 -2.9367287 -0.037026916 -2.2779942 -0.28125203 0.059385024 0.8272124 3.9478626
early -1.1517135 -0.71532667 -0.3203999 1.3075411 2.4713163 -1.8603125 -0.032978266 0.51778084 -2.7502384 0.23020986 0.54626155 2.0712152 3.0631068 0.2287124 1.0846221 -2.8184516 2.457776 -1.2286158 -4.818059 0.5382228 -0.8368489 1.2408365 -1.6970739 0.7333076 -1.3405458 0.6994136 0.08159865 0.21276131 1.5153663 1.5173125 0.33045942 -1.6716231 -2.7044365 -1.5432096 0.9021571 4.466361 -0.52137905 -0.7951039 1.6897993 -0.35547817 -1.5048952 1.4719359 -0.3387388 -3.7894082 2.921244 0.24376342 -0.56428385 -0.8594267 1.471945 -2.4260986 0.061523125 1.7240355 -1.0134002 -0.56081504 -2.5365996 0.23410772 0.5647358 3.7467077 0.6660957 -1.3933934 -0.737782 0.8705076 0.56618214 2.0795608 0.0023398844 2.4360485 -1.8412797 -0.343992 0.34531736 -0.36313522 -2.2783856 -0.25932425 0.75675845 1.0258782 -0.7419935 -2.8608654 -1.0840114 0.44062194 0.64284045 0.32397744 -0.76967776 1.8355507 0.9862258 1.9591042 -0.7708002 0.09491434 1.3373258 -2.3132284 1.865271 -0.5199921 -0.5422713 2.3982813 -0.8112169 -2.7193758 -0.030885179 -1.9986781 -0.25816992 0.09112822 0.7171372 3.588392
youre -1.3083711 -0.8389544 -0.3836982 1.5287535 2.9383905 -2.1822655 -0.04900682 0.6583964 -3.3299327 0.22106376 0.62568116 2.473209 3.6214144 0.22311978 1.261284 -3.3569653 2.8993924 -1.463064 -5.671349 0.63959515 -1.0419656 1.4928007 -2.086809 0.9203115 -1.5120872 0.8321524 0.12377877 0.27212256 1.774129 1.8398277 0.40037414 -1.9520031 -3.1994972 -1.8671433 1.0013343 5.2716618 -0.6055786 -0.97647274 1.9899342 -0.45305946 -1.8124677 1.7733977 -0.31880784 -4.5090747 3.556716 0.2630974 -0.63557446 -0.9888456 1.8102571 -2.923176 0.07224422 2.021882 -1.2044327 -0.69794285 -2.997484 0.27432522 0.62587273 4.3876734 0.75573057 -1.6506224 -0.8962251 1.0191232 0.6658274 2.4793131 0.0711601 2.8156462 -2.2358963 -0.40258956 0.45974228 -0.4964008 -2.7268667 -0.37712646 0.8951308 1.1803875 -0.9083543 -3.3647487 -1.360002 0.48353028 0.7943955 0.4041694 -0.8768445 2.1484892 1.1741481 2.2372115 -0.9519308 0.08093306 1.6237588 -2.814476 2.19528 -0.5923824 -0.6822013 2.7984672 -0.9847472 -3.2350311 -0.01170613 -2.444324 -0.26425093 0.09415056 0.9065737 4.2808404
too -1.3797889 -0.8228273 -0.3867711 1.5691729 3.0303817 -2.207443 -0.00015137499 0.63173836 -3.3304567 0.2079021 0.6394695 2.4826157 3.7502067 0.25227463 1.2883487 -3.405001 2.9704242 -1.5161335 -5.7543225 0.6659319 -1.0574621 1.5003861 -2.0783615 0.9078697 -1.5994756 0.8439113 0.12108952 0.26093566 1.7806146 1.8496706 0.44670472 -2.0382178 -3.2903671 -1.896904 1.0966206 5.3780947 -0.61009526 -0.973272 2.011759 -0.39449522 -1.8491127 1.849412 -0.33871856 -4.54426 3.541782 0.32065675 -0.6507369 -1.0559291 1.8209604 -2.9794497 0.04512983 2.048521 -1.2023993 -0.72257125 -3.0484679 0.3007511 0.6927149 4.442833 0.8046493 -1.6345246 -0.8650097 1.0586034 0.65963435 2.4891496 0.07830754 2.8889165 -2.2506623 -0.42570135 0.4253864 -0.45708916 -2.8097303 -0.38921884 0.9083459 1.2817585 -0.954692 -3.4385455 -1.3750539 0.5257266 0.7883523 0.46201766 -0.8706172 2.2342193 1.1815557 2.3288763 -0.9411426 0.07008048 1.6276376 -2.836259 2.2667785 -0.6023594 -0.66182107 2.8572948 -1.0312263 -3.303505 -0.0073813703 -2.446711 -0.24646273 0.113974705 0.885259 4.3795886
good -1.4954047 -0.8950753 -0.4408395 1.7605631 3.3063195 -2.4755661 0.016432967 0.69807017 -3.7282646 0.2909531 0.6945811 2.7461717 4.0899715 0.2950716 1.4549583 -3.7469 3.3088818 -1.6596156 -6.3873644 0.7532779 -1.1887485 1.7133193 -2.271226 1.0480906 -1.741012 0.98414135 0.11307529 0.2550478 1.9971101 2.0544977 0.4467921 -2.2432418 -3.6309023 -2.0965064 1.1445322 5.975644 -0.66627944 -1.0421125 2.1915326 -0.48551482 -2.082867 1.9753813 -0.40994114 -5.102836 3.9723113 0.24772759 -0.725638 -1.129956 1.9829797 -3.305911 0.06311209 2.2815878 -1.3558139 -0.8025367 -3.3765876 0.31582996 0.7378958 4.9765897 0.863782 -1.8401461 -0.934843 1.2128356 0.7945169 2.7984345 0.068833746 3.2203932 -2.510546 -0.4543318 0.4545714 -0.5096781 -3.0849905 -0.37161857 1.0506755 1.3946353 -1.0409697 -3.8418722 -1.4777068 0.55347747 0.85026574 0.4628207 -0.9726368 2.4076896 1.2887708 2.5409784 -1.0613337 0.111683965 1.817204 -3.1175618 2.4550908 -0.66053605 -0.7691877 3.1693892 -1.1313939 -3.6456645 -0.041109975 -2.7455008 -0.2855333 0.13461965 0.9624557 4.8458014
me -1.0374035 -0.567846 -0.34984112 1.161669 2.247627 -1.6827859 -0.048878122 0.48579067 -2.457381 0.15247445 0.46242273 1.8999914 2.7498844 0.1421794 0.94715035 -2.5612535 2.1768947 -1.0928501 -4.291566 0.43076476 -0.8266551 1.1101689 -1.5718421 0.7447924 -1.1891216 0.6458016 0.054067124 0.1971483 1.3533239 1.3693348 0.35196123 -1.4917966 -2.400937 -1.4321082 0.76157224 4.0618396 -0.4273018 -0.7405861 1.4891661 -0.26981443 -1.3334832 1.369072 -0.25941467 -3.3775399 2.6517172 0.23269267 -0.500546 -0.7461153 1.3150015 -2.2230263 0.0750219 1.4989257 -0.86143464 -0.49587196 -2.255282 0.19146913 0.45490178 3.3118587 0.6379272 -1.1876333 -0.6976401 0.8189116 0.47496843 1.8528578 0.033722945 2.117797 -1.7251312 -0.27442718 0.32036147 -0.32918128 -2.0401254 -0.33520132 0.6116383 0.9018844 -0.7141821 -2.5587647 -0.9991485 0.30292714 0.57682264 0.35771048 -0.63460225 1.6413518 0.88967395 1.694351 -0.64012194 0.07772603 1.2248994 -2.1749325 1.6918716 -0.40405762 -0.5156152 2.1338282 -0.74551976 -2.477837 0.037502535 -1.8959438 -0.17611225 0.07960347 0.6456072 3.314285
did -1.1998789 -0.6732015 -0.36480358 1.3374681 2.608879 -1.9492768 -0.02355201 0.5556593 -2.9513419 0.155536 0.55196804 2.2328787 3.3386984 0.17185526 1.1531227 -3.0185053 2.5677698 -1.3667265 -5.1119666 0.5682741 -0.9530192 1.304322 -1.8718942 0.81638724 -1.3467726 0.77680004 0.09047175 0.23464726 1.5706661 1.6756226 0.45291966 -1.7483333 -2.9354742 -1.6717277 0.97460276 4.8333373 -0.5225279 -0.88601124 1.7917666 -0.35122204 -1.6529951 1.6573282 -0.32523513 -4.0391436 3.117146 0.31250817 -0.61901385 -0.94131464 1.6304266 -2.6505263 0.107625574 1.8514413 -1.1184961 -0.6046741 -2.74685 0.1980689 0.544512 3.9133682 0.7479237 -1.4773351 -0.7406175 0.9686365 0.56403244 2.2315743 0.049041096 2.5391161 -1.9945644 -0.34749857 0.3882748 -0.455174 -2.5283983 -0.3215002 0.8179548 1.1420707 -0.8131231 -3.0661097 -1.2267841 0.40126958 0.7667055 0.40223527 -0.7601236 1.9599115 1.0307815 2.0612192 -0.8166499 0.11563772 1.4799868 -2.5255158 1.9488937 -0.4928416 -0.6276099 2.5216699 -0.9489769 -2.9431038 0.013962152 -2.2242234 -0.21390063 0.12530363 0.7726202 3.9289217
you -0.6247128 -0.23614933 -0.23311241 0.5942875 1.2301278 -1.0182288 -0.031857643 0.25222412 -1.3924999 0.12805061 0.23011026 1.1551666 1.5846161 0.07522695 0.45560464 -1.5223724 1.1571817 -0.62255305 -2.518679 0.27685124 -0.5426141 0.61826634 -1.0173446 0.46785143 -0.6376883 0.2884711 0.071167715 0.1214347 0.7565868 0.7343454 0.24573371 -0.9574589 -1.3602489 -0.9025447 0.37068808 2.411823 -0.21999776 -0.5038584 0.786619 -0.14065723 -0.77076167 0.84916884 -0.05630185 -1.959413 1.5376257 0.15709591 -0.29535192 -0.41676942 0.70302683 -1.3070925 -0.0023956047 0.8102652 -0.45885542 -0.28722772 -1.226855 -0.009457307 0.27490714 1.887027 0.34273535 -0.6364589 -0.43781495 0.5246857 0.22731602 0.9905242 0.059842087 1.1241522 -1.0784769 -0.108676076 0.18033414 -0.30176726 -1.1780034 -0.2350489 0.31292668 0.47134587 -0.41135126 -1.4392084 -0.5257539 0.05810518 0.29541272 0.28554773 -0.3242097 0.89599985 0.5554715 0.9329222 -0.29533035 0.07138247 0.76500225 -1.2745675 0.996032 -0.16783343 -0.2991167 1.1904464 -0.40639642 -1.5230081 0.053754687 -1.1196816 -0.05674948 0.06995402 0.4028185 1.980511
know -1.3479888 -0.6901178 -0.45241007 1.4610603 2.8803744 -2.1465287 -0.06463802 0.58833414 -3.2607298 0.18607739 0.6265814 2.4624104 3.6600075 0.20684366 1.1863501 -3.2999003 2.835029 -1.5243614 -5.5702415 0.57130164 -1.0221057 1.4092269 -2.1115007 0.9110479 -1.4813249 0.84744596 0.075285524 0.2542069 1.7830311 1.7908967 0.5210744 -1.9481425 -3.1424904 -1.8868282 1.0370095 5.326969 -0.54695714 -0.99804664 1.9350204 -0.4106764 -1.776927 1.8293797 -0.3339269 -4.39162 3.4132082 0.38688523 -0.6596162 -1.0284694 1.7413561 -2.932313 0.11162133 2.0165534 -1.1206466 -0.6873806 -2.914131 0.1646957 0.5624745 4.2874603 0.8869445 -1.5881407 -0.88274133 1.0688168 0.6293776 2.4114063 0.10329786 2.7512932 -2.2276268 -0.41844988 0.40791118 -0.5315668 -2.7648246 -0.4046906 0.8511454 1.1744367 -0.87814295 -3.317115 -1.3342323 0.4194088 0.79943603 0.5238636 -0.80181134 2.1287653 1.1544353 2.2298086 -0.86441046 0.1150569 1.6159685 -2.822818 2.1356962 -0.5569742 -0.7351668 2.765331 -0.98284525 -3.3060696 -0.019933237 -2.4924963 -0.23560442 0.08819257 0.8840853 4.3192816
suicide -0.088978246 -0.018572569 0.020751981 0.1470565 0.2674347 -0.2114857 -0.010055998 0.054586966 -0.2534225 0.035610408 0.06430577 0.22568104 0.3500641 0.06849312 0.11261337 -0.30281368 0.248171 -0.068283014 -0.48615164 0.10388172 -0.054160286 0.1673655 -0.21401215 0.10719065 -0.11711252 0.07761239 0.04607343 0.028717024 0.17437065 0.14467433 0.031677555 -0.19148512 -0.24597648 -0.17550483 0.13290745 0.4039678 -0.1022599 -0.11904939 0.19664395 -0.014411566 -0.10634876 0.11923729 0.022507023 -0.3728061 0.30732122 0.03235778 -0.08183143 -0.12097868 0.1717127 -0.24446094 -0.016492374 0.1333415 -0.14980926 -0.07899642 -0.18754922 0.04366099 0.007917943 0.3954238 0.041864645 -0.14227214 -0.12119475 0.03478304 -0.0038901987 0.24341351 -0.01963713 0.27230728 -0.15624617 -0.02898364 -0.02591263 -0.04479525 -0.22057535 -0.05290424 0.082171045 0.062279675 -0.046706337 -0.2743779 -0.08411587 0.038017303 0.117199 0.04373661 -0.123706296 0.1471686 0.09682907 0.18301234 -0.06474142 0.00060267217 0.1549998 -0.2649183 0.23062871 -0.03146842 -0.012648509 0.21575417 -0.06212783 -0.29226086 0.05587006 -0.20288894 0.010786654 0.045363218 0.04317071 0.34057274
is -0.91110873 -0.5863857 -0.25953236 1.086259 2.03838 -1.4906666 0.0045325183 0.46433258 -2.3205905 0.1701882 0.39584705 1.7121575 2.5623255 0.17230691 0.9107802 -2.2775264 2.091134 -1.0328734 -3.9676394 0.45131624 -0.72196674 1.0702574 -1.4204303 0.57252824 -1.0562524 0.5969875 0.06506412 0.17237477 1.2579596 1.3385357 0.29884696 -1.3406872 -2.2515378 -1.2760676 0.72878474 3.6671107 -0.4424205 -0.6170925 1.3811915 -0.29461014 -1.2846513 1.2637912 -0.26033953 -3.1763587 2.4638183 0.15645103 -0.4264256 -0.7001905 1.2367624 -2.055134 0.052260004 1.3731804 -0.8995767 -0.47697493 -2.1589072 0.23853162 0.4706972 3.1043637 0.55695254 -1.157237 -0.615702 0.7270981 0.5021384 1.7650218 0.03963808 2.0412548 -1.5028582 -0.27576268 0.3044421 -0.29708126 -1.9426498 -0.21832001 0.6415859 0.8878996 -0.61666477 -2.3717575 -0.9429775 0.38062707 0.5614236 0.27675724 -0.63453835 1.5152655 0.76931983 1.6070263 -0.678654 0.05281918 1.1489251 -1.9140109 1.5149804 -0.40199637 -0.4648088 1.9845922 -0.69821155 -2.2069404 -0.0052440646 -1.6781895 -0.1920112 0.08757895 0.62278146 2.9825895
second -0.7601106 -0.52596885 -0.21373534 0.8854551 1.6670002 -1.2900567 -0.039905984 0.3329286 -1.8748031 0.14538093 0.372598 1.4035687 2.0895345 0.19483647 0.73967475 -1.9456928 1.7083864 -0.90172744 -3.2968123 0.3995917 -0.62525433 0.8841458 -1.1293259 0.55817467 -0.9202113 0.5377085 0.06885934 0.122156076 1.048962 1.0761468 0.25551087 -1.1295104 -1.8932699 -1.011276 0.61382663 3.02374 -0.33114597 -0.55928975 1.1156096 -0.2725498 -1.0521793 0.9737011 -0.2227678 -2.6075084 2.0089188 0.15808932 -0.33559772 -0.56107485 1.0023208 -1.7074076 0.075496934 1.1612848 -0.7438515 -0.37137684 -1.7305661 0.17768398 0.40967342 2.5691948 0.45851654 -0.97379684 -0.48070616 0.5822941 0.42090344 1.4540877 0.053786095 1.6360676 -1.2364856 -0.24731192 0.22427468 -0.30288824 -1.54731 -0.19540663 0.5751676 0.65948623 -0.50880116 -1.949103 -0.7617133 0.3353775 0.4182554 0.20945172 -0.48340023 1.268683 0.6631078 1.3655994 -0.55199367 0.073711485 0.85731816 -1.5556076 1.2392663 -0.3519284 -0.39785728 1.6085573 -0.56983376 -1.8103197 -0.0111901155 -1.4181734 -0.18660718 0.099777065 0.51709294 2.485047
leading -0.12771253 -0.11086438 -0.013318353 0.16448548 0.26352543 -0.25080946 0.054904405 0.034440443 -0.3191734 -0.0001209637 0.018158311 0.21283044 0.3066456 0.006148929 0.15627582 -0.32522738 0.2401639 -0.16150767 -0.52210593 0.095542 -0.14630291 0.1206987 -0.1350076 0.053892978 -0.1082067 0.1383302 0.06689202 0.04362473 0.11471903 0.17885979 -0.00060286623 -0.15943272 -0.327296 -0.15455908 0.13454098 0.44995925 -0.079512596 -0.103788696 0.15918298 0.0013188053 -0.21865349 0.12446191 0.017335791 -0.4254691 0.3847374 0.04208032 -0.056828156 -0.07415923 0.21572293 -0.23113175 0.040263757 0.20483279 -0.13647948 -0.07087082 -0.24000962 0.049463265 0.083595335 0.41937247 0.123432264 -0.16988447 -0.09781476 0.07915583 0.0708208 0.20536847 -0.017275205 0.28887612 -0.14934286 -0.03612745 0.008084683 -0.0518974 -0.23827283 -0.061666466 0.11654454 0.09265579 -0.031097095 -0.34397838 -0.17513354 0.09095372 0.027823953 0.061667792 -0.045980185 0.17521934 0.122314684 0.20244727 -0.12761408 0.0034430134 0.11000829 -0.29103282 0.26466802 -0.029829988 -0.09031536 0.27833292 -0.0431796 -0.32643628 -0.032949425 -0.19363818 -0.046331473 -0.029374504 0.07641711 0.3539533
cause -0.6705856 -0.44668967 -0.18138367 0.7806042 1.5222567 -1.1177081 -0.060435716 0.34379828 -1.7427744 0.17884009 0.30095553 1.2549076 1.8830299 0.11598045 0.6955123 -1.7391124 1.5210012 -0.8057963 -2.998473 0.29577735 -0.5247875 0.7775606 -1.0665047 0.4834172 -0.8009399 0.49696225 0.07243506 0.15170865 0.96465325 1.0052992 0.2602016 -1.0404292 -1.6712301 -0.9642447 0.5386482 2.8005807 -0.3391559 -0.46691525 1.0216652 -0.18047717 -0.9245181 0.8951374 -0.21717113 -2.3782706 1.819114 0.13945661 -0.2963011 -0.5370776 0.96804154 -1.5672482 0.019763423 1.0511075 -0.65625703 -0.32615575 -1.5579629 0.13014247 0.302698 2.2986593 0.42243022 -0.8776712 -0.47454014 0.58280873 0.3295767 1.2670617 -0.00117698 1.488228 -1.1679875 -0.22649547 0.2467433 -0.21669774 -1.423356 -0.21580502 0.4726097 0.6681663 -0.45446637 -1.8199831 -0.7135982 0.30003422 0.43875635 0.19326028 -0.42437077 1.0968858 0.561117 1.1570612 -0.44748816 0.07816531 0.7936789 -1.458612 1.1616257 -0.3394124 -0.3108936 1.5176394 -0.51506793 -1.7039326 0.00029215185 -1.2745508 -0.11721846 0.070403956 0.49588308 2.2686117
of -1.1052157 -0.72961164 -0.310526 1.2081932 2.3647313 -1.7705756 -0.03643951 0.5376292 -2.6466334 0.19903824 0.4518465 1.9531398 2.9350767 0.24701002 1.1000084 -2.6866984 2.4189398 -1.1827056 -4.6071744 0.5124166 -0.84841716 1.2543498 -1.6047347 0.7282122 -1.2545751 0.7508261 0.123910755 0.20611346 1.4628001 1.5336907 0.33684453 -1.595941 -2.6347888 -1.4309148 0.8263167 4.2547874 -0.48447952 -0.7301492 1.5794935 -0.32739058 -1.467329 1.3886997 -0.3141086 -3.701943 2.8319538 0.12748314 -0.5066333 -0.7748051 1.4359978 -2.3425345 0.09573461 1.6068242 -1.0233774 -0.5523439 -2.5058231 0.23853804 0.5663567 3.5876553 0.61216795 -1.3132967 -0.67274255 0.84738696 0.54989314 2.0236256 0.002502769 2.2921665 -1.7196276 -0.29391232 0.37443128 -0.37105048 -2.2322204 -0.24171183 0.806707 0.99277866 -0.697469 -2.7466612 -1.1068963 0.4615185 0.6329848 0.30830258 -0.6767688 1.7396983 0.95125955 1.8532188 -0.7417692 0.07314773 1.275491 -2.1980681 1.7814825 -0.4896003 -0.519181 2.2855875 -0.8044196 -2.5234742 -0.017291037 -1.9178256 -0.22653303 0.08294019 0.7145912 3.4630337
death -0.31532213 -0.21495734 -0.12551211 0.39876115 0.7054347 -0.49486133 -0.027622078 0.13772002 -0.7580877 0.022947006 0.09467171 0.61562973 0.88810754 0.04484875 0.35249993 -0.78574735 0.7082794 -0.36572468 -1.4001929 0.15315898 -0.21407513 0.32920122 -0.49348885 0.25328943 -0.3203289 0.2443437 0.065077774 0.055642176 0.40811616 0.40232068 0.07491464 -0.51297784 -0.81957656 -0.47395024 0.19817732 1.3003685 -0.09801388 -0.25966498 0.44942898 -0.08519148 -0.45203617 0.40188125 -0.06663315 -1.1167228 0.78938234 0.055071644 -0.1317937 -0.24139704 0.42278382 -0.7324616 0.035745017 0.5031418 -0.2479834 -0.13929632 -0.78052634 0.0754515 0.20426579 1.0091932 0.14820401 -0.35398987 -0.25863034 0.27388364 0.120811336 0.5521212 0.055047937 0.7216766 -0.52841175 -0.046170857 0.10944092 -0.15063277 -0.6251465 -0.10728311 0.24138837 0.29130077 -0.25834006 -0.835479 -0.30622223 0.1550875 0.22790024 0.10046504 -0.20078392 0.5629702 0.26287496 0.50930244 -0.25347182 0.055646066 0.4230019 -0.61172056 0.49358335 -0.14571154 -0.17231807 0.68164057 -0.21216111 -0.72037 -0.019495293 -0.56457233 -0.03619398 -0.003541947 0.23887673 0.9845996
among -0.43075567 -0.30087963 -0.10692834 0.42354026 0.9062273 -0.61253685 -0.058212742 0.22378205 -1.0168775 0.03437135 0.21219282 0.71410024 1.1354743 0.032866925 0.4398951 -0.9572137 0.90145874 -0.45293182 -1.7330805 0.1986601 -0.322258 0.4974456 -0.60127705 0.22388533 -0.47398752 0.27892166 0.044499293 0.06739294 0.4982139 0.5208175 0.12000441 -0.6047367 -1.0157399 -0.5240682 0.3041763 1.6127187 -0.18606225 -0.25054768 0.56502396 -0.10173455 -0.5025958 0.50691235 -0.1460187 -1.3110591 1.053798 0.0722022 -0.18262811 -0.3219409 0.52984965 -0.8767587 -0.023777617 0.58595896 -0.38608223 -0.25822097 -0.8805071 0.07235316 0.15364647 1.3313205 0.19717462 -0.46541962 -0.30022058 0.31372982 0.1676131 0.75213856 0.007455932 0.8846666 -0.6984572 -0.09254522 0.1570103 -0.10971672 -0.77605325 -0.08140041 0.29908878 0.3855024 -0.31420207 -1.0453495 -0.36446825 0.13774203 0.22016649 0.108782105 -0.2024467 0.6350307 0.38259247 0.6370501 -0.23631895 0.06833487 0.5172637 -0.8558135 0.6954222 -0.14008258 -0.23276123 0.83757436 -0.2618927 -0.9967693 0.04354177 -0.6865918 -0.11896709 0.07656343 0.22158685 1.2781284
teens -0.13622467 -0.07058922 0.017078051 0.11585988 0.26650238 -0.22267744 -0.034643963 0.035331998 -0.27539727 0.02532538 0.02825026 0.19673046 0.32121107 0.019998493 0.15904759 -0.315817 0.22378264 -0.109861135 -0.44053742 0.020477958 -0.107391745 0.106902085 -0.1964706 0.13197826 -0.1445977 0.09507844 -0.02201566 0.03363987 0.121480204 0.17855664 -0.021008966 -0.20132998 -0.2133134 -0.16629738 0.0713291 0.46452647 -0.07152679 -0.09959318 0.1895976 -0.059810292 -0.11593506 0.19931926 -0.05645683 -0.40300384 0.254058 -0.021472672 -0.06427423 -0.14011084 0.10304305 -0.24601103 0.031761885 0.18832564 -0.055863522 -0.006811107 -0.224311 -0.026446136 -0.00359545 0.4011739 0.028371112 -0.14279473 -0.07765446 0.032113876 0.044688627 0.2426169 0.04531898 0.23320651 -0.23664545 -0.03952691 0.04034706 -0.00732506 -0.27976713 -0.06382325 0.11781839 0.115289345 -0.05030443 -0.31864876 -0.16468984 -0.011038355 0.06840638 -0.015088603 -0.101727314 0.21629043 0.117896326 0.16895144 -0.025178974 0.040070087 0.11158235 -0.17660543 0.19723715 -0.011223955 -0.0820548 0.25412527 -0.061009802 -0.2167475 -0.03467676 -0.17804722 -0.053667016 0.010449764 0.06911529 0.3249008
